	0	1	2	3	4	5	6	7	8	9	10	11	12	13	14	15	16	17	18	19	20	21	22	23	24	25	26	27	28	29	30	31	32	33	34	35	36	37	38	39	40	41	42	43	44	45	46	47	48	49
Superobese_bmi	-0.048898845445364714	0.07385070575401187	-0.00580260797869414	-0.1961693838238716	-0.07052094861865044	-0.046172213507816195	-0.31170492619276047	0.1269406471401453	-0.08011039486154914	-0.12579434551298618	-0.08995502721518278	0.0752916382625699	-0.05493793450295925	-0.005588445652392693	0.02765092696063221	0.020905174664221704	0.00833258213242516	-0.06845470890402794	-0.038957673124969006	-0.11050003953278065	-0.3235379159450531	0.05682401382364333	-0.26109202206134796	0.19834934920072556	-0.1096382737159729	-0.20464037731289864	0.10606813058257103	-0.2105378843843937	-0.29690470546483994	-0.019212570688978307	0.02748875692486763	-0.18262437358498573	0.03648394503397867	0.053058823803439736	0.044141149846836925	0.025044160545803607	0.010338789783418179	-0.37252235412597656	-0.02572400774806738	0.03313783160410821	-0.12510798498988152	0.0023886326234787703	0.19675111398100853	-0.025369367096573114	0.03823897987604141	-0.17064516618847847	-0.07162128388881683	0.034294224344193935	-0.160627581179142	-0.08467976190149784
Pancytopenia	-0.06831099092960358	0.16734567284584045	-0.020756336394697428	-0.09541638195514679	0.18872371315956116	-0.08527584746479988	0.08718818798661232	-0.2260262370109558	-0.11228090524673462	0.05690964125096797	-0.2362731248140335	-0.038450656458735466	0.09414885938167572	0.030374152585864067	-0.07033064588904381	0.07756805792450905	-0.06787955388426781	0.008783165365457535	0.022096579894423485	0.09710384160280228	-0.20605647563934326	-0.09830088168382645	-0.20924630016088486	-0.07547114230692387	0.1381367743015289	-0.14043348655104637	0.1445005238056183	-0.021630912204273045	-0.3018878400325775	0.1338791288435459	0.215488038957119	0.02117919083684683	0.14845548570156097	-0.1837935820221901	-0.2900799661874771	-0.09785168990492821	0.10633515566587448	-0.21361219137907028	-0.17616738379001617	0.052374960854649544	-0.17979750782251358	-0.18007498979568481	0.2003142386674881	0.12380191683769226	-0.11003151163458824	0.08602812886238098	0.08103962242603302	-0.10904218256473541	-0.012614683713763952	-0.12126933038234713
Superficial injury; contusion	-0.09797242802645391	-0.13385140515553454	0.12452586285459498	0.05083559982012957	-0.05231095890242917	0.04595948969751286	-0.05852310586875926	0.13734015023801477	0.1852468545238177	-0.10792208025037932	0.13773821080103515	-0.02882811865614106	-0.02967833533111843	-0.17236155529196065	0.06434971088698754	-0.17273072813016674	0.17716175702710946	-0.073383486433886	-0.009849995734111872	-0.1309009061505397	0.06220629304880276	0.06381595447504272	0.21643770622710387	0.187763439831906	-0.22177720020214717	0.11812791430080931	-0.1719983048737049	0.04720158524190386	-0.010071880995140722	-0.050487112622552864	-0.18700524708256125	-0.030424940239754505	-0.19862099174012351	0.1761659122304991	0.030449825059622525	-0.12036241235800844	-0.02501148356629225	-0.01734246043136712	0.07109303958908034	-0.16704961626480022	0.20307824370296051	0.19187158038839697	-0.18108804325262706	-0.09229159510286991	0.1731648816416661	0.01928406100620729	0.022968947091915954	-0.12640496420984468	-0.08055938844336197	0.20053163543343544
Oro_Facial_Congenital_Anomaly	-0.12414465782543023	-0.03659634722862393	0.0538941870133082	0.15292125195264816	0.07189785937468211	0.12042961145440738	-0.02484135614940897	0.011393371659020568	0.13304961721102396	-0.16701016823450723	0.036054432392120354	-0.027503371238708496	0.04249331851800283	-0.2540978839000066	0.04616803924242654	-0.18252494434515634	0.2636837661266327	0.041423093837996326	0.10644236952066422	-0.07113610580563545	0.09767695516347885	-0.011342455943425497	0.18986732761065164	0.18858744204044342	-0.13580577758451304	0.05933022250731786	-0.21975181996822357	0.14126170178254446	0.030552620068192482	-0.007883492236336073	-0.08061790714661281	0.05502277612686157	-0.09307558337847392	0.17872773110866547	0.02681075657407443	-0.1252710148692131	0.07387087245782216	0.01699619988600413	0.14108902836839357	-0.022989441951115935	0.06703804557522137	0.19384878873825073	-0.05856412462890148	-0.006884415323535602	0.1589408293366432	-0.0542349157234033	0.07807427272200584	-0.07397586603959401	0.008078981190919876	0.13108434279759726
Non_Specific_Metabolic_Disorder	-0.10407205671072006	-0.0223498409613967	0.046206263126805425	-0.11165076307952404	-0.01973722130060196	-0.005679495632648468	-0.09044295450439677	0.07740609953179955	-0.0303849020274356	-0.01762861893803347	0.10938369086943567	0.06318796658888459	-0.13489537127315998	0.021053008909802884	0.15321263205260038	-0.10830935870762914	-0.019483650568872683	-0.21285547129809856	-0.14975283900275826	-0.14664952538441867	-0.24486735463142395	0.1852182102156803	-0.0029029668949078786	-0.012045052833855152	0.03788972273468971	0.10607005259953439	0.0666620098054409	-0.21425406634807587	-0.08619460556656122	-0.11761356494389474	-0.05574337169309729	-0.2022338816896081	-0.08341697137802839	0.012976529076695446	-0.06806224148022011	-0.03746272134594619	-0.0707499081036076	-0.18112839478999376	0.0055753048509359394	-0.11252426635473967	-0.00944842863827944	-0.007483186782337725	-0.09096998907625675	-0.184229482896626	-0.006691277259960771	0.10403294395655394	-0.20351868867874146	0.010658402519766241	-0.08531463285908103	-0.001658212800975889
Psoriasis_Related_Disorders	0.07857393298763782	-0.06085535790771246	0.07915932452306151	0.086363828741014	-0.031140115694142878	-0.06975379132200032	0.12980126962065697	0.016434740275144577	0.10292134433984756	-0.1017295140773058	-0.08380362717434764	-0.08272664155811071	-0.03727904241532087	-0.18057426810264587	0.10834634955972433	-0.2264752984046936	0.15593732381239533	0.013140735100023445	0.054879617877304554	-0.021605074405670166	-0.07966561429202557	-0.01378492871299386	0.1637663058936596	-0.010007290169596672	0.01743364334106445	-0.00958325038664043	-0.10535192722454667	0.0381468830164522	-0.018705200403928757	0.10231361538171768	-0.10651573538780212	-0.13622205471619964	-0.24498260393738747	0.10512482095509768	-0.11221294477581978	0.04195089917629957	-0.0780000975355506	-0.053309742361307144	0.012774428352713585	-0.13277827762067318	0.07218838902190328	0.1851271539926529	-0.15639274567365646	-0.18388240039348602	0.21063151210546494	0.15081439167261124	-0.1258141053840518	0.018255029805004593	0.04605985525995493	0.262186162173748
Congenital_Spine_Anomaly	0.0748720330496629	-0.15108333776394525	-0.11703883608182271	-0.16619915266831717	-0.12677511821190515	-0.18765276173750559	-0.16541220744450888	0.0712850634008646	0.21704407533009848	0.04355630340675513	0.13484015067418417	-0.10324738671382268	-0.09721150994300842	0.04127213855584462	-0.027711845934391025	-0.021249270687500637	-0.03197213386495908	-0.25988440215587616	-0.1640688975652059	-0.047922201454639435	-0.029873808535436794	0.14619842171669006	0.07568099225560825	0.038991307839751244	-0.11009345451990764	-0.04914359748363495	0.022965483833104372	-0.1143957848350207	-0.2580738415320714	0.01608292106539011	0.018276024144142866	-0.08837753534317017	-0.1817624270915985	0.10501124585668246	0.13280869275331497	0.10589313507080078	-0.254165917634964	-0.24276232222716013	-0.09429572770992915	-0.03869879866639773	0.2278681347767512	0.012267672146360079	-0.29065171877543133	-0.029331754272182778	0.025138453890879948	-0.07942138239741325	0.05652312561869621	-0.2570967972278595	-0.25943244993686676	0.05265787181754907
Non_Specific_Eye_Disorders	-0.0972760623054845	-0.049449323543480465	0.15753700690610067	-0.06768991904599327	0.10803088943690195	-0.00029199994501790733	0.15944784014884913	-0.07588825474626251	-0.043729333473103385	0.05080426590783255	0.013401017524302006	0.12392179694558893	-0.14203467752252305	-0.08485753262149436	0.19263081678322383	-0.1899452390415328	0.0030774902552366296	-0.17368857775415694	-0.16351583919354848	-0.18267644196748734	-0.009667446421060183	0.1381293162703514	0.250159067767007	-0.024639100368533815	0.003668045092906267	0.14125608706048556	-0.13695173284837178	0.05510823175843273	0.024583169392177036	-0.07370457611978054	0.05964883629764829	-0.1716702761394637	0.03654406539031437	-0.09486197467361178	-0.13876569962927274	-0.11962461844086647	-0.062260957601081045	-0.10704279562924057	0.023110547768218175	-0.12721717676946095	0.016273671495062963	0.022525218182376443	-0.18565861880779266	-0.09704866632819176	0.002918051289660586	0.1818946578672954	-0.16354175444160188	-0.20158386443342483	0.04610410883157913	0.22119841192449843
Sideroblastic_Anemia	-0.18200449645519254	-0.08190667629241942	0.08294122666120529	-0.26361802220344543	-0.07988478988409042	-0.1816164404153824	-0.10777688771486282	0.02523371204733849	0.13303664326667786	-0.056128859519958496	-0.03968071192502976	0.18413205444812772	-0.1944703608751297	-0.025568030774593357	0.052836202085018165	-0.11641373485326767	0.012646220624446869	-0.11796125769615172	-0.22365720570087436	-0.08948814868927002	-0.35753458738327026	0.22902147471904755	-0.017828842625021938	0.0044692219235003	0.037570111453533166	0.13878023624420166	-0.033571235835552216	-0.22863814234733584	-0.1082063540816307	-0.1508788913488388	-0.0616719201207161	-0.20086553692817688	-0.03192305937409401	0.04505257308483124	-0.14006806910037994	-0.1931686252355576	-0.2304399013519287	-0.1830088496208191	0.061563111841678626	-0.044739194214344025	0.001190260169096291	-0.11970371752977373	-0.10125982761383057	-0.15442422032356262	0.06910130381584167	0.11990046501159668	-0.26262736320495605	-0.08154583722352983	-0.04094549268484116	0.1354861557483673
Connective_Tissue_Cancer	0.015408478677272797	0.0972079187631607	-0.14632311463356018	-0.15521050989627838	0.17542874813079834	-0.2159829288721085	-0.10016289353370668	-0.2404880225658417	0.18264059722423556	0.05642488971352577	-0.2513832151889801	-0.09828813374042512	0.0925385281443596	-0.0809803381562233	-0.1611432284116745	-0.009583631530404093	0.03979767858982086	0.07183326780796051	0.002916371216997504	0.1780136227607727	-0.11789211630821228	-0.08444051444530487	-0.1162215918302536	0.006827281787991525	0.1169085130095482	-0.11842038482427596	-0.02293470129370689	0.0790267363190651	-0.3762606680393219	0.13093797862529755	0.19095432758331302	0.14083418250083926	0.13409467041492462	-0.030081911012530323	-0.15112334489822388	-0.06492023169994354	-0.06580448895692825	-0.24099041521549225	-0.050435587763786316	0.1958756148815155	-0.13682930171489716	-0.14192920923233032	0.07135102897882463	0.13601310551166534	-0.03571076691150665	-0.06807012856006622	0.19868351519107816	-0.2520027160644531	-0.03957133367657661	-0.06539354473352432
Substance_Abuse	0.10231214442423411	-0.13328197718198811	-0.06243242010740297	0.01369141716609842	-0.16312658953081285	-0.10293897510772305	0.04455822749462511	0.08412859294497009	-0.07908328839195226	-0.10390644194558263	0.20801603368350438	-0.1081246190172221	0.09659153672068246	-0.029168409902402864	-0.15935245542121784	0.09153012332015871	0.010835606380299265	-0.13708596008031496	0.12354034361695605	0.059048642603946586	0.08042563828972302	0.10312469889010702	-0.009511425945675002	0.10353610319517818	-0.20506669314844267	-0.02590620148112066	0.07436511219878282	-0.14584537582205875	0.05233234310123537	0.08143174395497356	-0.11236963214884911	0.07903881088298347	-0.19948418544871466	-0.028412270114391243	0.20235589365516457	0.07834353750305516	-0.08469915150531701	0.02257789671421051	-0.10624146414920688	-0.11909123190811702	0.19799920730292797	0.16534242779016495	0.059337126407107074	0.11215388648478049	-0.057621879752592316	-0.07365775211448115	0.032521776954776475	0.05906209029490128	-0.0843384165117251	-0.11447337136736938
Iron_Metabolism_Disorder	0.11937084794044495	0.04840400442481041	0.029649313539266586	-0.16612019389867783	-0.09974677860736846	0.005502311512827873	-0.0925566628575325	0.13240502029657364	-0.15349653363227844	-0.06208590231835842	0.061240414157509804	0.052110230550169945	-0.013631584122776987	-0.061253421008586884	0.17871078103780746	-0.24238206446170807	-0.0004921751096844673	-0.14893336594104767	-0.0965947788208723	-0.23830554634332657	-0.20662590116262436	0.30970044434070587	0.061566492542624474	0.14114321768283844	-0.11573388427495956	-0.006574380910024046	0.048903126269578934	-0.16202889382839203	-0.11949680745601654	0.005447713658213615	0.01181810349225998	-0.2545691803097725	-0.22722655534744263	-0.10538025945425032	0.026005547493696213	0.012698989477939904	-0.040743633173406124	-0.35183145105838776	-0.05771220847964287	-0.18295574188232422	-0.015601179562509063	0.13026166707277298	-0.14541204273700714	-0.23567289859056476	0.029653036966919906	0.016996455611661077	-0.2293763980269432	0.007531129289418459	-0.07160127907991409	0.07379832305014133
Contraceptive and procreative management	0.09956047153816773	-0.2038819233958538	-0.01752500328439055	-0.06080791077021366	-0.18258973970436132	-0.08944775364719905	-0.08036882233304474	0.20536763256845567	0.15131221983868343	-0.11134205643947308	-0.07826569808038095	0.11731320834503724	0.032859089999244764	-0.2224844086628694	-0.07332251486010276	-0.11975984117732598	0.20764111154354536	0.07731845817313744	0.06965265109633598	0.032024445048031897	-0.037644631874102816	0.17388398873691374	0.029030007811693046	0.25180678700025266	-0.24117408986561573	-0.08398977706495386	-0.14177468648323646	-0.03639700557015693	0.06679063568411109	0.012545894513515612	-0.19811031938745424	0.06208446676072736	-0.0026741107710852073	0.15843134430738595	0.09750116179482295	0.06843628542712675	-0.1004004178998562	0.03392546949908137	-0.009930991370660754	0.0702692228100764	0.12810928059312013	0.09939482097979635	0.033017643667755274	-0.12425965622354013	0.21902422721569353	-0.10429517136743435	-0.11897205403791024	0.08579855402618144	0.07780699109515318	0.18384207957066023
Non_Specific_Nasal_Throat_Disorder	-0.09405392905076344	-0.17377757529417673	0.047483526170253754	-0.07952423642079036	-0.06453895320494969	0.06806754320859909	-0.21592412889003754	0.14154013494650522	0.011910254290948311	0.053075836350520454	-0.004889969403545062	-0.07680469751358032	-0.0007689947572847208	-0.12891705085833868	0.2632659176985423	-0.22751803696155548	0.134175772468249	-0.13279393315315247	-0.29388784368832904	0.0895378515124321	0.10144284119208653	-0.03021805329869191	0.20161260664463043	0.16385221481323242	-0.14109903573989868	0.216884916027387	-0.07512205342451732	0.07320596153537433	-0.0478891966243585	0.04642602056264877	-0.1188847819964091	-0.1225055605173111	-0.11278791228930156	0.10234920680522919	-0.03895006080468496	-0.16204352180163065	0.05014324995378652	-0.007489063621809085	0.20824435849984488	-0.11730233083168666	0.11266689995924632	0.2212401976188024	-0.058811575174331665	-0.16186165312925974	0.26471583048502606	0.19200417896111807	0.09698586910963058	-0.1486551562945048	-0.1805055687824885	0.16412142415841421
Unspecified_Neuropsychiatric_Disorder	-0.07950401476894815	-0.07672407237502436	0.0068585912231355906	0.0022872548239926496	0.021086252643726777	-0.12566634640097618	0.19577006250619888	-0.0956889937321345	-0.16275081224739552	-0.037622091360390186	0.20571638395388922	-0.04482486844062805	0.10687426601847012	0.024822939808170002	-0.12152229746182759	0.14102066804965338	-0.07620890438556671	-0.09109217584288369	0.07870676120122273	0.10244258182744186	0.0023294060180584727	0.006953104709585507	0.010064373413721716	-0.05231403217961391	-0.06428877590224147	0.08692699236174424	0.11994625441730022	-0.1889171563088894	0.048137434447805084	0.08211655293901761	-0.0009029102511703968	0.1279227373500665	-0.07831113537152608	-0.17964709472532073	0.03970938827842474	-0.11499197245575488	0.0009881380635003271	0.05726682456831137	-0.10927877202630043	-0.19318739821513495	0.12701434370440742	0.027612455965330202	0.13931475455562273	0.14205320676167807	-0.17002604653437933	0.052418228859702744	0.04474523290991783	-0.06220335513353348	-0.01332485512830317	-0.14152892430623373
Colorectal_Cancer	-0.10015572980046272	0.1710465643554926	-0.1446555946022272	-0.23390513472259045	0.07839087257161736	-0.22563334740698338	-0.06730796489864588	-0.25002639554440975	0.03872980779851787	0.03196616246714257	-0.2050423277541995	0.1549413288012147	-0.002127536106854677	0.08167648082599044	-0.07051331386901438	2.1525193005886983e-07	-0.0640424620360136	0.06393936416134238	-0.10684044379740953	0.06263313489034772	-0.19312353618443012	-0.00795937952352687	-0.10580113576725125	-0.14234533160924911	0.2370048239827156	0.036962858168408275	0.05233530537225306	-0.0043933320412179455	-0.2646910659968853	-0.02399067039368674	0.22374649345874786	-0.015813827398233116	0.12523585819872096	-0.15498061850667	-0.11959354393184185	-0.18370302394032478	-0.10876365471631289	-0.21880437061190605	0.014538942719809711	0.18521446269005537	-0.20951813831925392	-0.22835298255085945	0.02325229592679534	0.05750959878787398	-0.12275639921426773	-0.0370763975661248	0.03573277313262224	-0.12283324170857668	-0.022444685999289504	-0.12875219620764256
Non_Specific_Nephropathy	-0.2530926764011383	0.1332851853221655	0.127344005741179	-0.06478932732716203	0.10247102566063404	0.06024485547095537	-0.01376315951347351	-0.09893374424427748	-0.10378392413258553	0.060932448657695204	-0.02274938835762441	0.12317064963281155	-0.1574519518762827	0.0930058304220438	0.12938737589865923	0.033248476218432195	-0.09933458641171455	-0.18985058553516865	-0.1593952663242817	-0.15328344330191612	-0.2531016170978546	0.024152136873453856	-0.11203936347737908	-0.09129255264997482	0.12715339101850986	0.05412071105092764	0.08585588354617357	-0.15088796988129616	-0.23437683656811714	-0.17091475427150726	0.10284519661217928	-0.196257583796978	0.07387759257107973	-0.09675998985767365	-0.17562266811728477	-0.1641859424416907	0.07590032368898392	-0.25706178694963455	-0.03444416215643287	-0.08647140488028526	-0.15773320011794567	-0.1301253866404295	0.034425136633217335	0.0027045956812798994	-0.10662909783422947	0.10644969809800386	-0.11800229642540216	0.023977875476703044	-0.13078377954661846	-0.11130821146070957
Pulmonary_Heart_Disease	-0.2622828433911006	0.16130822648604712	0.06611815219124158	-0.08922355870405833	0.18337829411029816	0.08850425357619922	0.0404718512048324	-0.08229207247495651	-0.15427158276240033	0.17287387450536093	-0.005163277809818585	-0.04504906199872494	-0.11538854241371155	0.10788428535064061	0.08782420804103215	0.09560511261224747	-0.12894068409999213	-0.26687319080034894	-0.23941341042518616	0.028678569865102574	-0.11359136551618576	-0.06449569513400395	-0.10104408363501229	-0.13550353546937308	0.134574164946874	0.11116763080159825	0.07260263835390408	-0.04677676409482956	-0.18208969136079153	-0.06235068788131078	0.13318502406279245	-0.18162752191225687	0.13167203962802887	-0.128722054262956	-0.22816681365172067	-0.22235442201296488	0.1240239143371582	-0.17508375396331152	0.03481776018937429	-0.17049055794874826	-0.13621386885643005	-0.05202863737940788	0.14659463365872702	0.07427856077750523	-0.06420327971378963	0.2041865835587184	0.024076656127969425	-0.11109838386376698	-0.27934710184733075	-0.05456931019822756
Myasthenia_Gravis	-0.16936275362968445	-0.06561057269573213	0.13176997005939484	-0.1938893347978592	0.0777171328663826	-0.0955379083752632	0.02107789181172848	-0.03697345778346062	-0.09541232138872148	0.069637730717659	0.06742886453866959	0.06963058561086655	-0.12462042272090912	0.03817981481552124	0.20400050282478333	-0.08927788585424422	-0.0922674834728241	-0.3193288743495941	-0.3012783527374268	-0.07150249183177948	-0.2892880439758301	0.11578801274299623	0.0804230123758316	-0.06386648863554001	0.09140579402446747	0.11556528508663175	0.07867886871099472	-0.2301254570484161	-0.1996126025915146	-0.03755775094032288	0.029386837035417564	-0.22508494555950165	0.010327567346394062	-0.0580655001103878	-0.2197207063436508	-0.14689327776432035	-0.07689854502677917	-0.2427393496036529	-0.01169136818498373	-0.16175758838653564	0.024618247523903847	-0.06801269948482512	-0.0725303664803505	-0.10391748696565628	-0.0389985553920269	0.2170240581035614	-0.18924792110919952	-0.18127712607383728	-0.1128171533346176	0.041463155299425125
Uterine_Cancer	0.0020221727900207043	0.07085357854763667	-0.06739675269151728	-0.2825314700603485	0.09736776600281395	-0.19115501642227173	-0.08554140850901604	-0.06527100565532844	0.09483073030908902	0.040990748132268585	-0.15368302538990974	0.17376071711381277	-0.06389122161393364	-0.0058610539029662805	-0.04438759945333003	-0.04437206002573172	-0.007221549438933532	-0.009113045409321785	-0.14606717228889465	0.006789524108171463	-0.3634489178657532	0.14693594227234522	-0.07262089848518372	-0.024797107810930658	0.14556475977102915	-0.021313351268569633	-0.019689655804540962	-0.1660188858707746	-0.23330705364545187	-0.07492534567912419	0.10625200904905796	-0.061904030541578926	0.16109932834903398	-0.05045525481303533	-0.14345315347115198	-0.098858376344045	-0.12291312962770462	-0.2898221015930176	0.0687382301936547	0.11745623871684074	-0.17631398141384125	-0.17090428868929544	0.01950765649477641	-0.10551710605310897	-0.06488362948099773	-0.08440970008571942	-0.1361571711798509	-0.1431188260515531	0.038737339937749006	0.053499405272305005
Influenza	-0.12037531472742558	-0.09271840564906597	0.13698960840702057	0.07861260883510113	-0.007735172752290964	0.1553416308015585	-0.1624391619116068	0.17066605947911737	0.14496004581451416	-0.07135901600122452	0.1142344530671835	-0.08353975508362055	0.08666579611599445	-0.18004750460386276	0.1260607112199068	-0.1932672169059515	0.1877657137811184	0.0023468020372092724	-0.019563070265576243	-0.08539409702643752	0.09678865037858486	-0.013344069477170702	0.15437110885977745	0.22930344566702843	-0.20197403058409694	0.1545213796198368	-0.1400672346353531	0.08454108703881502	0.0424096662318334	0.01796238862152677	-0.20718872547149658	0.06080602575093508	-0.15105095691978931	0.19204529374837875	-0.03716667462140322	-0.143562538549304	0.1105959564447403	0.09852227382361889	0.1218460202217102	-0.16934604942798615	0.19777020066976547	0.16680990904569626	-0.11333356332033873	-0.13522565551102161	0.21944644674658773	0.027701119310222573	0.09278257447294891	-0.12089011818170547	-0.02577552014554385	0.17281682416796684
Pure_Hyperglyceridemia	-0.11134441941976547	0.0411040335893631	0.03837387263774872	0.021782355383038517	-0.06826899945735931	0.2039184421300888	-0.2047160565853119	0.1078663170337677	-0.09575484693050383	-0.03705181553959847	0.21276964247226715	0.009565397165715694	-0.14993834495544436	0.10101964324712752	0.2409186065196991	-0.09582193195819856	-0.017078537493944168	-0.2188756912946701	-0.11238440871238707	-0.2277788072824478	-0.1951860636472702	0.16297398507595062	-0.06646507978439331	-0.02188459783792496	0.1083574965596199	0.1959247291088104	0.14164195954799652	-0.22902899980545044	-0.002044052118435502	-0.20798107981681824	-0.12455406785011293	-0.23452259600162506	-0.17336013913154602	0.08821253478527069	0.042883548885583885	0.08887145668268204	0.04623177647590637	-0.07754482328891754	0.027741814032197002	-0.03569841012358665	-0.01660327799618244	0.02458077482879162	-0.13018085062503815	-0.2537662386894226	-0.00922283064574003	0.037530705332756036	-0.2466747760772705	0.2482893615961075	-0.07272899150848389	-0.20101816952228546
Osteomyelitis	-0.2133503487954537	0.08269648502270381	0.1081064771860838	0.03238854402055343	0.0931314726670583	0.027034368521223467	0.04241718724370003	-0.10990873724222183	-0.002466802795728048	0.07432150018091004	-0.05755117287238439	0.016762831558783848	-0.13987578234324852	0.07821245615681012	0.023896475012103718	0.09773678705096245	-0.07378549252947171	-0.16818155286212763	-0.06454016330341499	-0.07968586621185143	-0.15756147323797146	-0.059951718896627426	-0.1134490395585696	-0.0756630611916383	0.055142482121785484	-0.04977974730233351	0.08566002547740936	-0.08991240585843722	-0.2577008002748092	-0.11348191524545352	0.05197054271896681	-0.11983435849348704	0.10194981098175049	-0.029188986867666245	-0.18459176272153854	-0.05589023480812708	0.07461637258529663	-0.2057571392506361	-0.14924795677264532	0.0033374789636582136	-0.05420569206277529	-0.12929273396730423	0.041525631522138916	0.09585228314002354	-0.09317308167616527	0.08873350794116656	-0.012461971491575241	-0.009632082035144169	-0.12061023836334546	-0.08120118950804074
Fungal_Infection	-0.08366928024984457	-0.03635567460921319	0.22383130999172435	0.0952961462933351	-0.04395754145020071	-0.042082979152088654	0.07199624986113871	0.03258687856792034	0.15586672602769205	-0.06360725170987494	-0.07765364690738566	-0.013387094292899263	-0.025613681139314875	-0.15258822140886502	0.10291131991235648	-0.1812986236284761	0.15987470351597843	0.05507185894941144	0.0459368028678	-0.08799398516523926	-0.09048663578270112	-0.03411857098998392	0.11894780282369431	0.029227399760309386	-0.05419138597105356	0.10149997691897784	-0.11757774019326248	0.0035236889414270132	-0.0572851365808781	0.002639011219691704	-0.1710217139300178	-0.07577823288738728	-0.17357330615906155	0.10408255468834848	-0.1941880616633331	-0.05927395842531148	0.005674565279418055	-0.019390095980591413	0.027254646823755193	-0.13653484030681498	0.12159685396096286	0.11845114525845822	-0.143260727307814	-0.18518157478641062	0.17239235095022357	0.12605167936314554	-0.11751872498322935	0.023716331514365533	0.09413397607996184	0.2381753340801772
E Codes: Natural/environment	-0.01834246388170868	-0.13594797253608704	0.10981014743447304	-0.02627251413650811	-0.09339044149965048	0.05119633371941745	-0.11107059381902218	0.1999138630926609	0.11762730963528156	-0.12962425872683525	0.09249188099056482	-0.014822009485214949	0.03410282242111862	-0.21893488615751264	0.08942893892526627	-0.24492308124899864	0.18908517062664032	-0.04729858273640275	-0.021803346346132457	-0.11469756625592709	-0.018847997300326824	0.14695337042212486	0.19038807600736615	0.25950925424695015	-0.24753514304757118	0.10195239447057247	-0.1518155038356781	-0.014499745215289295	-0.000162987620569766	-0.006025837166816927	-0.2103510946035385	-0.04007334087509662	-0.2236272282898426	0.14888116903603077	0.022748056100681424	-0.09095663717016578	-0.030707706580869853	-0.04237860138528049	0.08738977741450071	-0.1602514311671257	0.18919597938656807	0.23492372035980225	-0.13827658630907536	-0.196210116147995	0.21094026044011116	0.0017607110785320401	-0.05591306264977902	-0.08373126946389675	-0.03920083399862051	0.21834951639175415
Haemophilia_Related_Diseases	-0.09226438403129578	-0.10540540516376497	-0.07839403301477432	-0.2846804261207581	-0.03386164829134941	-0.20631082355976105	-0.10669833421707152	0.08461026847362517	0.23165790736675265	-0.1596553474664688	-0.07580086588859558	0.04884786531329155	-0.19160620868206024	-0.13576507568359375	-0.10742931813001633	-0.021834712475538254	0.14312298595905304	-0.15185105800628662	-0.05074787512421608	-0.0033397630322724576	-0.2212825268507004	0.1438307762145996	-0.11844703555107115	0.15434691309928894	-0.18531864881515506	-0.11406691372394563	-0.1243126094341278	-0.11417186260223387	-0.2813967764377594	-0.13664598762989044	-0.11522240191698074	-0.16473983228206635	-0.0013299983693286774	0.12227722257375714	0.013436869718134405	-0.09109347313642502	-0.1934199035167694	-0.3549644947052002	0.008018393069505692	-0.04883604869246483	-0.06861057877540587	0.04709408804774285	0.033639706671237946	0.005099997390061617	0.131610170006752	-0.02499094419181347	-0.10351040214300156	-0.08264200389385222	-0.24120180308818814	0.13300594687461853
Corns_Callosites	-0.18336541950702667	0.06837255507707596	0.2454396635293961	-0.0007910900749266148	0.08524245768785478	-0.022586332634091374	0.21343928575515747	-0.07059826701879501	-0.055770426988601685	-0.005842412821948528	0.011050586588680744	0.19561554491519928	-0.2121918350458145	-0.01061130315065384	0.16946670413017273	-0.10076454281806946	-0.01007284689694643	-0.2262912392616272	-0.12284556776285173	-0.21784012019634247	-0.2166786640882492	0.09930114448070526	0.12228060513734818	-0.05907546728849411	0.012291163206100464	0.06370189785957336	-0.08275185525417328	-0.16524043679237366	-0.2095326781272888	-0.20740363001823425	0.00964577682316303	-0.2920936048030853	-0.005963978357613087	-0.05991075932979584	-0.13640758395195007	-0.15288498997688293	0.011708421632647514	-0.3160349428653717	-0.01700674742460251	-0.18563097715377808	-0.06058624386787415	0.06273740530014038	-0.03167243301868439	-0.07213488221168518	-0.060725599527359016	0.13235299289226532	-0.2765304446220398	-0.04707304760813713	-0.10024658590555192	0.11696013063192368
Congenital_Hypothyroidism	-0.13060228526592255	-0.0946771875023842	0.16213609278202054	0.07203017920255661	0.10586451739072801	0.12523242831230166	-0.0412813164293766	0.12985080480575562	0.14235372841358185	-0.1704317182302475	0.17543351650238034	-0.08201158791780473	0.02529022842645645	-0.2167879194021225	0.1760927438735962	-0.24654440581798556	0.1986704766750336	0.02322931028902531	0.07926522195339203	-0.1552339643239975	-0.02140694297850132	0.06155383214354515	0.1857620477676392	0.18227678537368772	-0.13154196739196775	0.17874950170516968	-0.16645294427871704	0.035762231796979904	0.11487577855587006	0.008537559770047666	-0.23333483934402466	0.062128264456987374	-0.1637980192899704	0.1932033896446228	-0.09461452066898346	-0.1553203910589218	0.018212640658020973	0.09856433421373367	0.1631137579679489	-0.1944730132818222	0.10589815676212312	0.16819080710411072	-0.1624203324317932	-0.20278050005435946	0.15616966784000394	0.07536166161298752	-0.04084715992212296	-0.1432388722896576	0.08077128976583481	0.20280982553958893
Unspecified_Behavioral_Development_Disorder	-0.1295948326587677	-0.09574059396982193	0.16222669184207916	0.21524518728256226	0.10648386925458908	0.17496320605278015	0.048052608966827386	-0.0010556555353105068	0.06693291664123535	-0.2123986929655075	0.14565971493721008	-0.14064346253871918	0.14689651131629944	-0.25038358569145197	0.08895803987979889	-0.15220260620117188	0.25017625093460083	0.08403889834880829	0.1363930106163025	-0.0394926592707634	0.11417726427316666	-0.10818685591220856	0.2429837137460709	0.19194021821022034	-0.15831013023853302	0.12976433336734772	-0.1593828648328781	0.12635867297649386	0.06140747293829917	0.07031746953725815	-0.15747186541557312	0.16796287894248962	-0.19252900779247284	0.1318247616291046	-0.03217257559299469	-0.18936967849731445	0.1601359248161316	0.1167263612151146	0.10107245296239853	-0.18570752441883087	0.1386357843875885	0.2085278481245041	-0.04815671220421791	0.018989380449056625	0.1126859113574028	0.03186390921473503	0.11539971828460692	-0.12498904019594193	0.07725144922733307	0.08026144653558731
Complex_Regional_Pain_Syndrome	0.08909965306520462	-0.1960803916056951	-0.08272841572761537	-0.18566365043322244	-0.1401763161023458	-0.21002558867136636	-0.1474421744545301	0.05634838156402111	0.1435163269440333	0.05407090360919634	0.14707516878843307	-0.11240024616320926	-0.044386511047681175	0.04292002444465955	-0.0381444200562934	0.02273536194115877	-0.06020138164361318	-0.27296363313992816	-0.13879856653511524	0.0017877280091245968	-0.10527658462524414	0.1591317132115364	0.018871567212045193	0.02384641331930955	-0.10036583493153255	-0.06038831453770399	0.10383896032969157	-0.22411073247591654	-0.23929567138353983	0.07529394701123238	-0.01819998227680723	-0.03671627243359884	-0.166245366136233	0.046464620778958	0.07285524656375249	0.13607033838828406	-0.2430946429570516	-0.2036751757065455	-0.1619854544599851	-0.06464559274415176	0.2533057779073715	-0.03323784346381823	-0.21044539908568063	-0.03983450556794802	-0.027998836478218436	-0.0658329005042712	-0.0017907745204865932	-0.22540666659673056	-0.17447316149870554	-0.003264245887597402
Anxiety_Phobic_Disorder	0.13529449758621362	-0.24190231240712678	-0.09030326556127805	-0.04652243429938188	-0.23648090545947736	-0.1335397523183089	0.06131775569743835	0.16563362370316798	-0.062192861223593354	-0.08980718398323426	0.23828309430525854	-0.06195584831472773	0.12972436329493156	-0.07102692198867981	-0.17344342630643111	0.06702339033094737	0.060308088799222156	-0.09476954203385574	0.10432035218064602	0.09435742864241967	0.06183567558988356	0.19667023993455446	0.06005838190993437	0.1436497517503225	-0.266842694236682	0.07774390781728122	0.05262321147781152	-0.18651256079857165	0.172409927042631	0.07951134056426011	-0.21244446016274965	0.12894126486319762	-0.2061920567200734	-0.030107100673306447	0.23994092414012322	0.08215651747125846	-0.11730843639144531	0.11825891125660676	-0.06742959698805442	-0.1206081727376351	0.2915610304245582	0.19963397200290972	0.03370845998422457	0.018546565865667965	-0.001620462043949654	-0.04847298193579683	-0.06298213881941941	0.07260069329514898	0.03333099684319817	-0.05925205049033348
Spinal_Stenosis	0.06423247940838336	-0.044749706611037256	-0.08401990383863449	-0.19193540513515472	-0.04492110088467598	-0.17803369760513305	-0.11457966044545173	-0.02827925216406584	0.0974878255277872	0.08749626427888871	0.12530980855226517	-0.10104428976774216	-0.08453086987137795	0.07556757107377052	-0.009795736242085693	0.05680236592888832	-0.10062704384326934	-0.3114437997341156	-0.17090930044651031	-0.060827643051743506	-0.10618859827518463	0.1270139828324318	-0.010479832207784059	-0.012044372409582138	-0.03883223859593272	-0.08182175867259503	0.0960638090968132	-0.18642639517784118	-0.32323443293571474	0.013931166380643845	0.11593689322471619	-0.09111511707305908	-0.12386212795972824	-0.016239592898637058	0.0805898018181324	0.08411372099071741	-0.18875316083431243	-0.3200238823890686	-0.126349775493145	-0.06726458445191383	0.12437935322523117	-0.04895307614933699	-0.21337279081344604	0.01683179996907711	-0.09117651060223579	-0.10787274092435836	0.013313995394855737	-0.253613543510437	-0.27027976512908936	-0.036410088650882244
Sleep_Apnea	0.00695819694859286	-0.002207395931084951	0.03751276604210337	-0.05584803099433581	-0.07597034238278866	0.11483540448049705	-0.11416502793629964	0.10659075280030568	-0.22555323938528696	-0.007002546451985836	0.20346868534882864	-0.11117451389630635	-0.004288924237092338	0.013747722686578832	0.23757001757621765	-0.08859513700008392	-0.028631160423780482	-0.33214319745699566	-0.15370208521684012	-0.16747433443864188	-0.1076632762948672	0.15400355557600656	-0.002315936920543512	0.08325935962299508	-0.0888287282238404	0.07305578577021758	0.16299490133921304	-0.21421747406323752	-0.17024570206801096	-0.012247287357846895	0.0005924254655838013	-0.22976821660995483	-0.23126964767773947	-0.0748757782081763	0.03568606326977412	0.046543776988983154	0.0785845344265302	-0.24422988295555115	-0.05453405405084292	-0.21680047114690146	0.04750420774022738	0.15832939743995667	-0.07619732369979222	-0.13580297430356345	-0.02044013732423385	0.09229988162405789	-0.13810883710781732	0.01856428198516369	-0.18837701280911764	-0.11785261084636052
Unspecified_Plasma_Protein_Metabolism_Disorder	-0.1490044221282005	0.12134411558508873	-0.02893244381994009	-0.16818365454673767	0.17484218627214432	-0.09719272702932359	0.06775746867060661	-0.19036658108234406	-0.08935686573386192	0.13810987770557404	-0.07329832762479782	0.016177333425730467	-0.0733746886253357	0.09417327865958214	-0.03515191935002803	0.10369448736310005	-0.15324951708316803	-0.1645963191986084	-0.12992335855960846	0.048292189836502075	-0.2913195639848709	-0.0008349204435944557	-0.1735493764281273	-0.15231352299451828	0.1909850612282753	-0.025690735259559005	0.17159155011177063	-0.1522325500845909	-0.25138937681913376	-0.006820479466114193	0.18342642486095428	-0.09320603683590889	0.12347279116511345	-0.1547880545258522	-0.24674907326698303	-0.13444430381059647	-0.03481631842441857	-0.26244139671325684	-0.08912660926580429	-0.048760395497083664	-0.1515945941209793	-0.20068933814764023	0.09871901385486126	0.06932233646512032	-0.1512155681848526	0.1406489536166191	-0.01908653904683888	-0.1405118778347969	-0.12589892745018005	-0.10591474920511246
Parkinsons_Disease	-0.2195134609937668	-0.08712225407361984	0.07290256023406982	-0.028685575351119038	0.10280463099479677	-0.2270068377256393	0.3415806889533997	-0.28245702385902405	-0.10756315290927887	-0.008474857546389103	0.19613827764987946	0.07131452113389969	-0.05456304550170898	0.019656473770737648	0.010582064278423786	0.11983828991651535	-0.07364579290151596	-0.2284582108259201	-0.030343489721417424	0.01961299404501915	-0.06179091706871985	0.03873810917139053	0.16055703163146973	-0.1689092367887497	0.023792153224349025	0.16594180464744568	0.03760841116309166	-0.26209479570388794	-0.16325294971466064	-0.03290251642465592	0.1216643676161766	0.0671752542257309	-0.033424343913793564	-0.25425297021865845	-0.004666239023208618	-0.1834457665681839	-0.07265971601009369	-0.09204702824354173	-0.11256538331508636	-0.2002816051244736	0.0992063656449318	-0.02021798118948936	-0.007408568635582923	0.16317982971668246	-0.2694724500179291	0.058660056442022324	-0.0867128074169159	-0.19778355956077576	-0.07095354795455933	-0.1097663640975952
Acute_Bronchitis	-0.1563924089074135	0.005228273943066597	0.16410116106271744	0.08519130423665047	0.0812531754374504	0.18080781996250153	-0.18371304534375668	0.09326205849647523	0.12464538216590881	0.015635275840759265	0.09171903803944588	-0.13634867817163468	0.07115017846226693	-0.15419174917042255	0.14620341807603837	-0.1459382265806198	0.1600232094526291	-0.0068802138790488255	-0.06966158766299486	-0.015802312409505248	0.11027478650212288	-0.058834332041442394	0.125925512611866	0.17595024406909943	-0.09877153560519218	0.21162767708301544	-0.14530761763453484	0.06951069086790085	0.04648005703929812	0.007934702932834626	-0.16806093454360962	0.10348638705909252	-0.048464974574744704	0.1578926920890808	-0.09497220907360315	-0.17858291193842887	0.1659770965576172	0.11173185110092163	0.16608221232891082	-0.1426990270614624	0.12714311331510544	0.1265770062804222	-0.056373323500156405	-0.07066581891849637	0.1869397521018982	0.026021218858659267	0.11153950989246368	-0.1605618666857481	-0.029074256122112275	0.15422382354736328
Pituitary_Disorder	0.06791208637878299	-0.14275510609149933	-0.03473058249801397	-0.09898255754281611	-0.08550550183281302	-0.0804116753085206	-0.07764127974708875	0.1058059645195802	-0.035258086398243904	-0.09690932805339496	0.06817535862016182	-0.0006419224664568913	-0.021876952234985463	-0.08434694353491068	0.10806923980514206	-0.13311911125977835	0.08578334376215935	-0.10689236347874005	-0.0011276451599163267	-0.0353082677659889	-0.17047280197342238	0.19708009933431944	-0.04500878136605024	0.06557206933697064	-0.06289250776171684	-0.011773496866226196	0.0690064684022218	-0.22403106093406677	-0.030674097011797127	0.052772147386955716	-0.13080840557813644	-0.05077547735224167	-0.0899065009628733	0.03975608324011167	-0.014766560246547067	0.11987194170554479	-0.12760969313482443	-0.04551131262754401	-0.10410464058319728	-0.06896549959977467	0.02796682498107354	0.038442438293714076	-0.012254232230285796	-0.1695092966159185	0.04374659185608228	0.12931103197236857	-0.20796028276284537	0.07686669938266277	0.006416695192456241	-0.011038505782683691
General_Cerebral_Degeneration	-0.2464880347251892	0.012114113196730614	0.06653150916099547	-0.05465405061841011	0.15740153193473816	-0.11313769221305847	0.2602410912513733	-0.21980448067188266	-0.1321200132369995	0.11113297194242476	0.21838733553886414	0.055362988263368614	-0.07482996582984924	0.12294738739728928	-0.061348725110292435	0.23147162795066836	-0.17601309716701508	-0.2174867689609528	-0.05420011654496193	0.0343029722571373	-0.09884656220674516	0.015163792297244072	0.0019358672434464093	-0.20174889266490936	0.08292572945356369	0.15822471678256989	0.09125924110412598	-0.2397490739822388	-0.06904946267604828	-0.08270392566919328	0.13264824450016022	0.05539313331246376	0.07867022603750229	-0.2347311675548553	-0.06140715628862381	-0.21943669021129608	-0.018537063151597977	-0.06107570230960846	-0.07000419497489929	-0.20159190893173215	0.00973727274686098	-0.1194259375333786	0.09112969040870668	0.1680702418088913	-0.27528712153434753	0.10808436572551727	-0.0040003866888582715	-0.1407814621925354	-0.11439445614814757	-0.14910103380680084
Generalized_Lipidoses	-0.13776005804538727	0.0014450937742367387	0.07074809074401855	-0.07539105415344237	-0.017132164910435677	0.0987444743514061	-0.13016970455646515	0.1048976629972458	-0.029609372839331623	0.0058326050639152536	0.2003311961889267	0.06451474875211716	-0.22250476479530332	0.07504217326641083	0.22039569914340973	-0.12939514219760895	-0.0564165934920311	-0.2440928965806961	-0.18397141993045807	-0.22239156067371368	-0.2031981199979782	0.2183782160282135	0.03191214054822922	-0.05651933699846268	0.10091852396726607	0.24771109223365784	0.07897963374853134	-0.22333182394504547	0.0010906129609793425	-0.2296711504459381	-0.08733045309782027	-0.2676115036010742	-0.16185209155082705	0.03677057102322578	-0.02600858174264431	-0.030700625851750374	-0.04502193629741669	-0.14917860925197599	0.06169020757079125	-0.11346913874149325	-0.014920356683433056	-0.012881005182862282	-0.1882257461547852	-0.2569659948348999	-0.03168782964348793	0.1346728801727295	-0.2246667593717575	0.0937398225069046	-0.12351996451616287	-0.04611169546842575
Unspecified_Immune_Deficiency	0.005268818233162165	-0.191108912229538	0.1406816989183426	-0.007906023412942886	-0.014350373297929762	0.03780446201562882	-0.11854787915945053	0.08805611729621887	0.016289470717310902	-0.05742960423231125	0.009192407131195068	-0.20205530524253845	0.2104407101869583	-0.2068050652742386	0.20668905973434448	-0.2333579510450363	0.1335340291261673	0.039657294750213616	-0.07951073348522186	0.11518080532550813	0.0296968687325716	-0.10255060344934464	0.14234499633312225	0.1388927698135376	-0.15256351232528687	0.11043349653482436	-0.04931196570396423	0.054244864732027054	-0.025492627173662186	0.27412286400794983	-0.13469693064689636	0.060230724513530724	-0.17511524260044098	0.1071593090891838	-0.20728161931037906	-0.07493999600410461	0.06664770841598511	0.12072551250457765	0.0851864293217659	-0.18109142780303955	0.2048504650592804	0.16208481788635254	-0.05462849512696266	-0.18491005897521973	0.2455823123455048	0.2317061573266983	0.08157835155725479	-0.2253352254629135	0.06696179509162903	0.17880958318710327
Organ_transplant_history	-0.09271122515201567	-0.032559242099523544	0.1866784393787384	-0.067241370677948	0.15956594049930573	-0.0032238347921520467	0.1756501942873001	-0.14831766486167908	-0.11179397255182266	0.11895596235990526	0.017535747960209846	0.19083710014820102	-0.2018524557352066	-0.025721589103341103	0.23845133185386655	-0.1610911190509796	-0.09839332103729248	-0.2595858573913574	-0.1918423175811768	-0.24770697951316836	0.004852370824664831	0.14948387444019318	0.24950526654720304	-0.05521224811673165	0.05640039965510368	0.08394533395767212	-0.12679317593574524	0.07768864929676056	0.027330081909894943	-0.12039729207754135	0.14319922029972074	-0.20263370871543884	0.13073723018169406	-0.1557890623807907	-0.1480337232351303	-0.04946615546941757	-0.07971341162919998	-0.13941490650177002	-0.02482389472424984	-0.08009234070777893	-0.056460101157426834	-0.05009788274765015	-0.1761113703250885	-0.023543866351246837	-0.08657215535640718	0.17803430557250974	-0.20700940489768985	-0.21358713507652285	0.06641193479299545	0.21243354678153992
Unspecified_Hematological_Disorder	-0.0615104672809442	-0.029187183051059645	-0.08033410583933194	-0.3007199962933858	0.02151653729379177	-0.2139344960451126	-0.04924763226881623	0.003575878838698074	0.07183677206436793	-0.005939754967888196	-0.06352881466348966	0.06352521541217963	-0.13948060075441995	-0.028105503927993897	-0.004622991662472484	-0.04838747903704643	-0.008952025324106216	-0.18027240534623465	-0.15288770322998366	-0.0023816643903652825	-0.3151977360248566	0.1833646446466446	-0.07936162160088618	-0.006357769171396896	0.022324697735408933	-0.0019465660055478413	-0.0014126890649398167	-0.17935377856095633	-0.23190739750862122	-0.02002956539702912	0.06710440789659818	-0.16753566761811575	-0.007207495470841728	-0.01798960007727146	-0.0922173912016054	-0.11896960297599435	-0.19222132861614227	-0.31426048775513965	0.0032240385189652443	-0.08939097200830777	-0.06912935439807673	-0.06763296481221914	-0.026696729163328808	-0.08150043462713559	0.009997166693210602	0.10199213276306789	-0.13092186550299326	-0.14657597740491232	-0.19390576084454855	0.07999388376871745
Chronic_Upper_Respiratory_Infection	-0.10178577279051144	-0.17513729135195413	0.12448502331972122	0.009534897903601328	-0.028694852565725643	0.08193580930431683	-0.1888447254896164	0.12394799540440242	0.12998861819505692	-0.0487409057871749	0.07262056196729343	-0.08512875686089198	0.06762425601482391	-0.1612867241104444	0.1886535038550695	-0.22704546650250754	0.16533897320429483	0.02889865854134162	-0.12347935636838277	0.014331309124827385	0.0926231915752093	-0.07070182139674823	0.19858011106650034	0.16808201372623444	-0.1458295409878095	0.20810213188330332	-0.12045394380887349	0.09509134292602539	0.07172881563504536	0.07022701079646748	-0.18557251493136087	0.022076798680548865	-0.16973328590393066	0.16072580715020499	-0.0557229007439067	-0.1603251894315084	0.0352188553661108	0.1402101367712021	0.1921371469895045	-0.12737949192523956	0.1925310343503952	0.14581003288427988	-0.1342406322558721	-0.17512686053911844	0.26374783118565875	0.14345375200112662	0.10849171876907349	-0.17152656614780426	0.014595848818620047	0.2041477213303248
Non_Specific_Prostate_Disease	-0.2268318235874176	0.09591095894575119	0.0007179532161292931	-0.05093085082868735	-0.19896872093280157	-0.003102154781421021	-0.025621164745340746	-0.0960983857512474	0.008929398531715075	0.022507690203686554	-0.022488854825496674	0.19971639414628348	-0.13934127241373062	0.05657486245036125	0.15448167423407236	-0.1689350555340449	0.04141485085710883	-0.1316637545824051	-0.19820270935694376	-0.1729205697774887	0.08938573859632015	0.1311668654282888	0.13084259380896887	-0.07797707120577495	-0.013768619547287623	0.2841627498467763	0.022638917279740173	0.013774640392512083	-0.2383146435022354	-0.2669569750626882	0.07893097400665283	-0.18414916098117828	-0.17169674734274545	-0.12987108528614044	0.015500064628819624	-0.20312784612178805	0.012725018585721651	-0.1757856160402298	-0.11866558343172073	-0.057514107475678124	-0.008009654159347216	0.007869910448789597	-0.30407004555066425	-0.06557123363018036	-0.05853922168413798	0.03059554340628286	-0.06851670208076636	0.11760016282399495	-0.2485335717598597	-0.1460117151339849
Hair_Related_Disease	0.059649042785167694	-0.05772828869521618	0.0627744235098362	0.11329806968569756	-0.17014868557453156	-0.015433705411851406	0.1256501879543066	0.15142600610852242	0.15669438987970352	-0.10386164486408234	-0.12347844243049622	0.04595964588224888	-0.01791783608496189	-0.19737189263105392	0.008579921908676628	-0.26656395196914673	0.22027574479579926	0.09799240157008171	0.09173713624477386	-0.028336159884929657	0.03493002709001303	0.09936605766415597	0.2036728784441948	0.04873792733997106	-0.17089657485485077	-0.006177821196615696	-0.16699162870645523	0.08459862414747478	0.06106669548898935	0.036792391911149025	-0.2136217802762985	-0.13739387318491936	-0.2195232808589935	0.1302696168422699	-0.087751854211092	0.049837902188301086	-0.030878047458827503	0.017009802046231925	-0.07555372174829245	-0.05190790630877018	0.18647006899118423	0.2036169245839119	-0.19627736508846283	-0.20161989331245422	0.23474639654159543	0.15142109990119934	-0.12090661004185677	0.13258136063814163	0.058186293579638004	0.26626405119895935
Urethral_Disorder	-0.11185114830732346	-0.2304304540157318	0.1292794644832611	-0.16653811931610107	-0.15239693224430084	-0.14674246311187744	-0.09223424643278122	0.1757780909538269	0.302249550819397	-0.055839695036411285	-0.04745928570628166	0.20478729903697968	-0.06664267927408217	-0.20056398212909696	-0.026147862896323204	-0.11076061427593233	0.21582861244678495	0.08432047069072722	-0.09660658240318297	-0.00652220007032156	-0.13927724957466125	0.1691095381975174	0.08895229548215866	0.19433265924453733	-0.21169687807559967	0.10130465775728226	-0.19959864020347595	-0.13810905814170835	-0.051651347428560264	-0.1426241248846054	-0.20550020039081573	0.057445526123046875	0.02363116666674614	0.12710514664649966	-0.05455092340707779	-0.1427958607673645	-0.1112424209713936	-0.029405405744910237	0.06282059848308562	-0.023631397634744644	0.17188473045825958	-0.00114207633305341	-0.09122975170612337	-0.18850776553153992	0.1823042184114456	-0.06686007976531982	-0.12963469326496124	-0.058333583176136024	0.06619636714458466	0.276949942111969
Vascular_Congenital_Anomaly	-0.06931289471685886	-0.1360622253268957	0.002745591104030623	-0.033916592597961426	0.006768319755792632	-0.05285786837339401	-0.08282943442463875	0.07267545722424984	0.10400114580988884	-0.06726218573749065	0.18626699224114418	-0.10152322426438332	0.049400426098145545	-0.15253426507115364	0.0031317099928855827	-0.06576363742351532	0.10348200984299183	-0.08594382926821709	-0.0010858923196792603	-0.009858757257461548	-0.004862155765295029	0.07529818639159203	0.08603284042328596	0.13072595931589603	-0.14565755426883698	0.06859484734013677	-0.040654972195625305	-0.05523332953453064	-0.019799625501036644	0.06772623769938946	-0.14091138169169426	0.06300863530486822	-0.15629611909389496	0.10982508677989242	0.01697680726647377	-0.09681740659289062	-0.07752670347690582	-0.018386457115411745	0.031841993331909194	-0.14209192991256714	0.17005912959575653	0.10029509279411285	-0.10212728008627892	-0.04927678033709526	0.07281660102307796	0.03206688445061445	0.06376787647604942	-0.16903214901685715	-0.06669140607118607	0.07283387891948225
Refraction_Accomodation_Disorders	0.011431332677602768	-0.02015966922044754	0.234233632683754	-0.06322281062602997	-0.06485389918088913	0.024498382583260536	0.05158788338303566	0.1623227447271347	-0.08679506927728653	-0.0919724628329277	0.08837934583425522	0.18096956610679624	-0.14503179490566254	-0.09649021178483964	0.18941006064414975	-0.2559419870376587	0.045265942811965935	-0.16420228779315948	-0.061222035437822335	-0.28314492106437683	-0.035728268325328834	0.2798624634742737	0.21099890768527985	0.14808863401412964	-0.10656460374593736	0.08814368396997453	-0.1551976054906845	-0.036889109760522835	0.09600737690925598	-0.12048958986997604	-0.11784358322620392	-0.2455056458711624	-0.10822993516921996	0.02622511796653271	0.011430486105382442	-0.04891446977853775	-0.09921659529209136	-0.1558569222688675	0.0807732567191124	-0.1668224334716797	0.02007199078798294	0.17347784340381622	-0.1307908594608307	-0.20008046925067904	0.09325871616601944	0.029962114989757538	-0.304537832736969	0.010382230393588543	0.004213167354464531	0.2086660861968994
Graves_Disease	0.08568635582923889	-0.13756495714187622	-0.13205181062221527	-0.2612484097480774	0.1280663013458252	-0.024070223793387413	0.06048167124390603	0.2465121001005173	-0.07302045077085495	0.0011903918348252773	0.08674003928899765	0.07233785092830658	-0.08271735161542892	-0.07020419090986252	0.1444597989320755	-0.1329946517944336	0.04483156278729439	0.02143948152661324	0.021706294268369675	-0.06229579076170921	-0.226370632648468	0.3441022932529449	-0.04914509132504463	0.040068268775939934	-0.028211053460836414	0.004617633298039436	0.04452433064579964	-0.2149207442998886	0.31364336609840393	0.03674430027604103	-0.2043164223432541	-0.032178059220314026	0.10625431686639786	0.13439863920211792	0.01904185675084591	0.08335529267787932	-0.24779841303825376	0.09243038296699524	0.12169349938631058	-0.06052616983652115	-0.06986677646636963	0.05510656908154488	0.12451430410146712	-0.3128203451633453	0.029078509658575058	0.13086682558059692	-0.27537310123443604	0.02095220796763897	0.1320572793483734	0.09051866084337233
Benign_Endocrine_Neoplasm	-0.047133361299832664	-0.05999885375301043	-0.01782637819026907	-0.18448453396558762	-0.016508734474579494	-0.07688024888436	-0.11877848642567794	0.09895288571715355	-0.01726840001841386	-0.014960741003354395	0.04992003614703814	0.11553800851106642	-0.14940700928370157	-0.002623295411467543	0.1313173547387123	-0.10376303518811862	0.005153678357601156	-0.16097941001256308	-0.17148596420884132	-0.1176017497976621	-0.2957106828689575	0.2486543208360672	-0.03054526448249817	0.025571714931478112	0.013044752180576324	0.04036365201075872	0.07212379388511181	-0.2713747173547745	-0.1097454436433812	-0.08022542918721833	-0.04510728238771358	-0.1796398088335991	-0.010310450568795199	0.023299242680271462	-0.041683778166770935	0.0154073399802049	-0.14558772494395575	-0.2112282750507196	0.0035559870302677085	-0.054638768235842385	-0.04924802668392658	-0.029100041293228667	-0.031912958870331444	-0.1929678718249003	0.008418958013256395	0.10508611301581065	-0.2461762676636378	0.031844671815633774	-0.07197146614392598	-0.004344778756300613
Peripheral_Nerve_Disorder	0.03644262809151163	-0.16854999462763467	-0.0522656106040813	-0.16293803912897906	-0.13208559465905031	-0.1788953443368276	-0.16140000894665718	0.09084590811592837	0.13895861897617579	0.030513840921533603	0.15052342073371014	-0.04437639766062299	-0.13294840852419534	0.031794471045335136	0.04531538913336893	-0.014958924689077927	-0.03728931147876816	-0.2975476843615373	-0.18183770030736923	-0.07383356429636478	-0.12029751638571422	0.17358806729316711	0.058646333985961974	0.04471226874738932	-0.09168242465239018	-0.02937732497230172	0.06341326170756172	-0.22639595593015352	-0.2335361447185278	-0.03210748422134202	-0.040867001827185355	-0.13474706249932447	-0.16891245792309442	0.09717807460886736	0.11931558791548014	0.11919364954034488	-0.23497449855009714	-0.24332366014520326	-0.06594868307001889	-0.053301923151593655	0.20697441945473352	0.01747322683998694	-0.21810606867074966	-0.07904225991417964	0.014861739027158668	-0.05399553322543701	-0.0490636439450706	-0.16898012595872083	-0.2031213225175937	0.028287942909325164
Tympanic_Membrane_Disorders	-0.17633643746376038	-0.11578186228871346	0.1359444409608841	0.14254693686962128	0.050559867173433304	0.14798686653375626	-0.08122403174638748	0.00465340749360621	0.144532673060894	-0.11288915574550629	0.1351393647491932	-0.038494329899549484	0.04248935170471668	-0.15763583779335022	0.23625710606575012	-0.20764252543449402	0.17435481399297714	0.07557974010705948	-0.016040277667343616	-0.17735721915960312	0.1598917543888092	-0.1320962905883789	0.25980767607688904	0.2252775803208351	-0.2411739006638527	0.13096391037106514	-0.1495715267956257	0.1694696620106697	-0.005542813451029359	-0.04180592391639948	-0.09983526542782782	0.04832403361797333	-0.1825714111328125	0.14980783313512802	0.012796706520020962	-0.16286776214838028	0.10043060407042503	0.0467983391135931	0.16329661011695862	-0.13200723379850388	0.07955724745988846	0.1890403777360916	-0.18421165645122528	-0.04426833987236023	0.1600426509976387	0.1109403558075428	0.15195588022470474	-0.1722315400838852	0.03742645774036646	0.14208097010850906
Non_Melanoma_Skin_Cancer	-0.08164784210103174	0.08175979720638885	0.012844077448525856	-0.045340269116774926	0.06213178698183788	-0.0222088347917663	0.20886306680979266	-0.11734934625846724	-0.0035038619272170527	-0.01818239353991474	-0.06872483294817709	0.13103086837837774	-0.18379268002125523	-0.05234540001143732	0.13957593301611562	-0.20952017292861017	0.048556836175491974	-0.07878131998492585	-0.10759095445034965	-0.18803528792435123	-0.05707212363279635	0.13443838156038715	0.23139482015563595	-0.0577917589295295	0.013296355162897417	0.14106553190973617	-0.10396947759774423	0.046953185476482875	-0.15738344264607276	-0.15937500984798517	0.08897706513263044	-0.25423229077169973	-0.12874010012995812	-0.1345038039069022	-0.09923845223121104	-0.18266103596937272	-0.04878595668161588	-0.3058056470847899	-0.016600819264215628	-0.09020661881133434	-0.10143536624626347	0.09647945696187596	-0.22257607790731615	-0.09675871633413818	-0.01083957638231016	0.18619328809361305	-0.1571505874876053	-0.05870353700893541	-0.10196237765898507	0.15456450021555346
Acne	0.06880631390959024	-0.03765367763116955	-0.12807787582278252	0.15117167681455612	-0.17963632196187973	0.05087633244693279	0.16588804870843887	0.17621552944183347	0.1070447154343128	-0.09734275564551353	-0.1550614833831787	0.08606283739209175	0.030317856930196282	-0.19224762171506882	-0.10289714857935905	-0.20378171652555466	0.20721538364887238	0.10145251452922821	0.12187749892473221	0.09800552017986774	0.16304802149534225	0.12506917491555214	0.2173694595694542	-0.029964245855808258	-0.21565548330545425	-0.10698779672384262	-0.1877007633447647	0.17258018255233765	0.14695575088262558	0.0891428291797638	-0.16121791303157806	-0.13599727302789688	-0.09949631243944168	0.14304836094379425	-0.01859286054968834	0.10865595564246178	0.014978542923927302	0.10599638521671297	-0.13727931678295135	0.0811116099357605	0.2208002284169197	0.17845100164413452	-0.13098229467868805	-0.11436524614691734	0.23394495248794556	0.10933637246489526	-0.023669692687690258	0.14249493181705475	0.009487986564636234	0.20925483107566833
General_Thrombocytopenia	-0.1426901649683714	0.03529716841876507	0.1008179821074009	-0.1667068488895893	0.044198608957231045	-0.012349006021395326	-0.03802543133497238	0.00978855136781932	0.02804707852192223	-0.040345372282899916	-0.04851507022976876	0.0700400061905384	-0.053116557188332095	-0.10952140158042312	0.10979596013203265	-0.16239401849452406	0.06626473367214203	-0.0976487323641777	-0.1209136676043272	-0.14450440742075443	-0.26198549941182137	0.11472157016396523	0.03218139009550214	0.08206339599564672	-0.033264424651861184	0.06103457696735859	-0.0647636204957962	-0.06452184496447444	-0.1879572463221848	-0.04240009281784295	0.01052783615887165	-0.15841496922075748	-0.05899236514233053	0.01497341634240002	-0.1724644098430872	-0.22930707409977913	-0.012642955873161554	-0.27662660367786884	0.03256356599740684	-0.16559414379298687	-0.029534268658608205	0.04142735432833433	-0.04674430517479778	-0.1523477343725972	0.06688782572746277	0.11856725998222828	-0.11366058909334242	-0.1198932807892561	-0.09860947728157043	0.15069053991464898
Purpura_Other_Hemorrhagic_Conditions	-0.17643619080384573	0.014348602543274558	0.09590906168644626	-0.05001638581355413	0.10438987861076991	0.001589925959706311	0.0800172487894694	-0.03717864677309989	0.06593685558376212	0.023812984426816303	0.03929121193747657	-0.0028302110731601693	-0.12639920289317766	-0.043429007132848106	0.10631037876009941	-0.11152609934409459	0.032149279490113244	-0.13392871059477326	-0.13876937032910064	-0.08903151253859203	-0.1120572304353118	0.041559811060627304	0.1280093900859356	-0.04200143739581109	0.028278520951668423	0.1677723079919815	-0.06802579388022423	-0.025551391144593563	-0.09478997904807329	-0.0495947600963215	-0.00010918825864793258	-0.15021393386026224	-0.08536212394634883	-0.005939950545628865	-0.1790708601474762	-0.22612346708774567	-0.034639483938614525	-0.14709186740219593	0.04235779742399851	-0.19952456404765448	0.023728131006161373	0.025603255877892184	-0.15035840620597204	-0.08995048453410466	0.03896973033746084	0.18231554329395294	-0.05409485474228859	-0.15627390642960867	-0.11754512580713102	0.14572589720288912
Sexual_Dysfunction	0.10243229568004608	-0.1980029493570328	-0.06829360872507095	-0.12658436596393585	-0.2567862868309021	-0.09889040887355804	-0.1201072484254837	0.2111397236585617	0.03150973841547966	-0.07929961383342743	0.1213114932179451	0.03623579815030098	-0.06176400184631348	-0.0732564851641655	0.10698741674423218	-0.2207138538360596	0.11415237933397293	-0.1351245790719986	-0.094490647315979	-0.05912071466445922	-0.06375797837972641	0.3169155120849609	0.10403385758399963	0.08937223255634308	-0.15785343945026398	0.10262563079595566	0.031351637095212936	-0.2085068374872208	0.02347550168633461	-0.015358530916273594	-0.1940750479698181	-0.09286783635616302	-0.22063401341438293	0.050440244376659386	0.1127074733376503	0.14652368426322934	-0.1848844289779663	-0.042694054543972015	-0.0932118073105812	-0.07231774181127547	0.17541837692260742	0.13635823130607605	-0.21700723469257355	-0.271890789270401	0.1027010828256607	0.09198400378227234	-0.2563826143741608	0.11497541517019272	-0.023459628224372864	0.06338685005903244
Inner_Ear_Disorder	-0.06271802509824435	-0.21395662426948547	0.020959640853106976	-0.20187162359555558	-0.14822529504696527	-0.07323366403579712	-0.15114875386158624	0.18292259673277536	0.16432952135801315	0.08045673991243045	0.1639203354716301	0.04504174428681532	-0.09981946150461833	-0.059757593068449445	0.04517031026383241	-0.12889254093170166	0.051694602550317846	-0.19241548081239065	-0.22598003844420114	-0.017822014711176355	-0.11137380947669347	0.24484652280807495	0.12561735262473425	0.08846507718165715	-0.11932612955570221	0.21170289317766824	-0.05251486785709858	-0.17948660254478455	0.06181578400234381	-0.06721556784274678	-0.18658792972564697	-0.06010492083926996	-0.13001306603352228	0.10127728432416916	0.030721162911504507	-0.1034591794013977	-0.1825279394785563	-0.024289220571517944	0.056678015738725655	-0.1543238510688146	0.22045635183652243	0.005020176370938619	-0.21404664715131125	-0.24099921683470407	0.131973830362161	0.07928770035505295	-0.1012217750151952	-0.12295704831679662	-0.07899907231330872	0.1804220179716746
Non_Specific_Thryroid_Disorder	0.09709488973021507	-0.17227423936128616	-0.11920143663883209	-0.29627008736133575	0.022502652369439602	-0.07242785766720772	-0.05083749443292618	0.25946278870105743	-0.060966214165091515	-0.0599476397037506	0.06357445940375328	0.08963699266314507	-0.06612531840801239	-0.09147023782134056	0.14635057747364044	-0.1655682846903801	0.06378179229795933	0.009740251349285245	-0.049111323431134224	-0.025022307410836223	-0.29657480120658875	0.3220870792865753	-0.040234001353383064	0.08970664441585541	-0.05068114586174488	0.007540993974544109	0.057579824700951576	-0.2955706715583801	0.15899056196212769	0.03297929372638464	-0.2129574865102768	-0.051171572878956795	0.023389123380184174	0.1171998642385006	0.00933558330871165	0.0976322740316391	-0.21720977127552032	0.02136924350634217	0.09085072949528694	-0.044371411204338074	-0.006199832307174802	0.03840527683496475	0.07430076599121094	-0.3313455730676651	0.04735306091606617	0.10849032178521156	-0.29839593172073364	0.022123845294117928	0.11664217710494995	0.07238586992025375
Hepatobiliary_Congenital_Anomaly	-0.08358117192983627	-0.11279218643903732	-0.11884453147649765	-0.3755514323711395	-0.09121835976839067	-0.36299797892570496	-0.1797473281621933	-0.06278680264949799	0.07765505462884903	0.013463451527059078	-0.1096263825893402	0.13786940276622772	-0.014129835180938244	0.055658753961324685	-0.06069960817694664	0.038930896669626236	-0.03577045351266861	-0.07285992801189423	-0.21157866716384888	0.11547181010246275	-0.3268770277500153	0.09053044766187668	-0.12370525300502774	-0.05435658246278763	0.015769666060805317	0.07249510288238525	0.14650310575962067	-0.20105016231536865	-0.2461247593164444	0.02600824646651745	0.02733202651143074	-0.07721240818500519	0.04525472968816757	-0.07744593918323517	-0.11103571206331253	-0.12952588498592374	-0.2376442700624466	-0.23079557716846466	-0.08316130936145782	0.11138203740119934	0.026361020281910896	-0.22264108061790466	-0.02892332524061203	-0.045243777334690094	0.024827556684613228	0.018403239548206333	0.014445507898926737	-0.1997013092041016	-0.08420149236917496	-0.04708799347281456
Rectal_Anal_Disorder	-0.09823551893766436	-0.06348936013611299	-0.022719098953530192	-0.24030845346195356	-0.1812324406845229	-0.267878668648856	-0.1653020264846938	-0.04820957181176969	0.14417004319173948	-0.1639153973332473	-0.11737487678016935	0.21310203628880636	-0.059583345361586125	-0.11099662951060704	0.07035177580213973	-0.16828319430351257	0.1359513806445258	0.07041571182864052	-0.15136971537555968	-0.07204702443310193	-0.15812655219009944	0.06654786730983427	0.07499794568866491	0.04331014217210135	-0.0332899432895439	0.17739342898130417	-0.0774253202336175	-0.04940422491303512	-0.1863991075328418	-0.10139594692736864	0.00047371576407125867	-0.12264158150979451	-0.17734117114118167	-0.011034122535160609	0.010334700878177372	-0.17638878311429704	-0.21385149192065	-0.18311275435345514	0.13129202675606524	0.049484925876770704	0.01610699256083795	-0.01504035852849483	-0.18601181358098984	-0.11334300094417163	0.10847917145916394	0.010931268201342654	-0.10802853001015526	-0.056261957356972356	-0.016577936043696746	0.05859225073696247
Familial_Adenomatous_Polyposis	0.14705237746238708	0.019639365375041958	-0.08388619124889374	-0.2591207027435303	-0.16342467069625854	-0.1110508143901825	-0.1602313667535782	0.08653748035430907	-0.1370348036289215	-0.1622186303138733	0.010436124168336391	0.16109615564346313	0.07221605628728868	-0.030364574864506718	0.19123367965221405	-0.30248525738716125	0.024762783199548718	0.06807149201631546	-0.14680632948875427	-0.15374335646629333	-0.19066405296325686	0.27256086468696594	0.12075158208608627	0.0583936832845211	-0.0029459025245159864	0.11542652547359468	0.03589214012026787	-0.15278510749340055	-0.02734857052564621	0.008472715504467487	0.046121906489133835	-0.18605059385299685	-0.24568353593349454	-0.12647514045238495	0.07514139264822006	-0.06814794987440109	-0.11080053448677064	-0.18789692223072046	0.1140815168619156	-0.03168993070721626	-0.00022671869373880327	0.051322594285011285	-0.21107088029384613	-0.3205457329750061	0.023791717365384102	-0.00013890562695451078	-0.2434748858213425	-0.05663894489407539	0.08624084293842316	0.05458662658929825
Benign_Colon_Neoplasm	-0.18440805872281393	0.05595471026996771	0.016314866642157238	-0.16678602000077566	-0.08567436784505844	-0.022197773369650047	-0.13284095376729965	-0.01772522736185541	-0.003553684412812192	0.027606435120105743	0.0965015043814977	0.17639616628487906	-0.21052277088165283	0.056630236407121025	0.15601172546545664	-0.17671027282873789	-0.010955806200702986	-0.24806823829809824	-0.2677862544854482	-0.1531763623158137	-0.1848345696926117	0.20810673634211221	0.07822386423746745	-0.05809094694753488	0.13237464924653372	0.2914028465747833	-0.00586688417630891	-0.12293759236733119	-0.073394858588775	-0.21720114847024283	0.020036051981151107	-0.28784386316935223	-0.11488828311363856	-0.008792502029488483	0.03524315791825453	-0.1688393751780192	-0.12032606204350789	-0.17910344898700714	0.09715244174003601	-0.04651062283664942	0.0020525800064206123	-0.005604580044746396	-0.21710514028867087	-0.1735517531633377	0.030775435889760654	0.03229908707241217	-0.17973439395427704	0.012952457259719568	-0.17539520313342413	-0.023962403802822035
Chronic_Sinusitis	-0.040549969766288996	-0.2646518920858701	0.03278240679840868	-0.09421085628370444	-0.11729537323117256	0.012832776827660076	-0.25437942892313004	0.17292149613300958	0.08855387195944786	0.10527612268924713	-0.008080658813317617	-0.10212685912847519	0.022638831035389256	-0.12267184505860011	0.20690241704384485	-0.16401617974042892	0.11591254423062007	-0.06782127280409138	-0.29553183168172836	0.14652016696830591	0.0950931857029597	-0.04060983630673339	0.16359739005565643	0.16505563259124756	-0.18531683087348938	0.19250956922769547	-0.03771063995858034	0.013107415773750594	0.0019357513325909792	0.10440322298867007	-0.17585589239994684	-0.012805232933411995	-0.09116782372196515	0.11721925809979439	-0.03832870296901092	-0.06913718643287818	0.010292115504853427	0.08962213434278965	0.1502735565106074	-0.07587664698561032	0.2153496022025744	0.1353501665095488	-0.10180199146270752	-0.1880391389131546	0.2695947512984276	0.19052117317914963	0.12333063781261444	-0.16958395888408026	-0.062170031325270735	0.1482546702027321
Addisons_Disease	-0.0060299262404441695	-0.2440813481807709	-0.04687109962105751	-0.16615796834230423	0.0240192087367177	-0.22436368465423584	0.04524620249867439	-0.01015792042016983	0.006241515278816223	-0.04983449913561344	0.07223296165466309	-0.035833228845149286	0.009645290672779083	-0.07802338316105306	0.06623275671154262	-0.03544173948466778	0.02917507942765951	-0.11037225741893053	-0.04698931239545344	0.1492602713406086	-0.24307560175657272	0.11872129328548908	-0.03717785328626633	-0.04578598961234093	0.013698313385248177	0.007735311985015869	0.08289513923227787	-0.30658845603466034	-0.03796748816967009	0.1642421204596758	-0.14512232318520546	0.07635283842682838	-0.020232480019330985	-0.022902775555849086	-0.1672142893075943	0.0432569719851017	-0.20039969310164452	0.005576916038990035	-0.087762251496315	-0.08209991268813609	0.09413147624582052	-0.07047255150973797	0.020542094483971596	-0.08963569113984704	-0.012305621523410082	0.18955133855342868	-0.16070892289280891	-0.14104151725769043	0.0737509485334158	0.01061988901346922
Alzheimers_Disease	-0.21084226667881012	-0.004993371665477754	0.06943998299539089	0.03210538346320391	0.17831102013587952	-0.15147008001804352	0.33942900598049164	-0.24335161596536636	-0.16957733780145645	0.07022002339363098	0.18114881217479706	0.052873049397021525	0.04008975438773632	0.08380958996713161	-0.11415496096014977	0.19979125261306763	-0.14782200753688812	-0.10898180305957794	0.0627411138266325	0.07251035794615746	-0.024164700880646706	-0.011986937839537859	0.06211615540087224	-0.1853640079498291	0.039045726880431175	0.1480143591761589	0.07466401439160109	-0.21459654718637466	-0.018428466748446226	-0.022902600758243352	0.12563347443938255	0.14357108622789383	0.06499720923602581	-0.2780200093984604	-0.06803065910935402	-0.2205936461687088	0.057621920481324196	0.02438186202198267	-0.12364743649959564	-0.18720863014459607	0.03530391305685043	-0.06308543309569359	0.14612139016389847	0.1917278692126274	-0.2673228979110718	0.06980008073151112	-0.0035589030012488365	-0.11883211880922318	-0.002453938126564026	-0.1286727860569954
Acquired_Retinal_Defects	-0.11673796139657497	-0.004565873257815838	0.16165882404893636	-0.06921004042029381	0.10177276112604887	0.04306441900786012	0.08511112075299025	-0.07099996995180845	-0.09393887542188167	0.07778292927891016	0.04478554019704461	0.15395816385746003	-0.187938931286335	-0.01968084866181016	0.23536525785923004	-0.16363926902413367	-0.05592727793380618	-0.23664531514048576	-0.19931435853242874	-0.2505510637164116	-0.03121369544416666	0.1532322889380157	0.18387193698436022	-0.026058703255839647	0.0401349114254117	0.11244473375380039	-0.07796003500930965	0.015784460506401955	-0.0040156119316816325	-0.14931256651878358	0.08369582458864898	-0.2171752056479454	0.0506768309394829	-0.1040888711810112	-0.11366766914725304	-0.06497512578702298	-0.049207055140286685	-0.15614318907260893	0.004633208960294724	-0.08804583750315942	-0.05143518589437008	-0.028015813324600458	-0.16980972051620483	-0.07262592270970344	-0.05828950305469334	0.15418863087892531	-0.19670036882162095	-0.12404742054641246	0.022923222975805402	0.142183398604393
E Codes: Adverse effects of medical care	-0.015225236304104328	-0.2364102900028229	0.028093229979276657	-0.2134636491537094	-0.07477417588233948	-0.2325563132762909	-0.12655243277549744	0.09297308325767516	0.20914673805236814	-0.04678438976407051	-0.1295829713344574	0.01407131738960743	-0.08963672816753387	-0.2271875739097595	-0.13866257667541504	-0.05702725052833558	0.21233537793159485	-0.08978649228811264	-0.06981700658798218	0.0313960574567318	-0.19037210941314694	0.12149396538734435	-0.08519168198108673	0.22578778862953186	-0.3453026711940765	-0.04129133000969887	-0.02498588711023331	-0.1430215835571289	-0.2888669073581696	0.010164346545934677	-0.1433226764202118	-0.01302291639149189	-0.06459794938564299	0.11121726781129836	-0.02518746443092823	-0.007287907879799604	-0.12121068686246872	-0.3037903606891632	-0.13934478163719174	0.049188509583473206	0.17049336433410645	0.02030845731496811	-0.01900771260261536	0.017860887572169304	0.14678123593330386	-0.10988537967205048	0.023048635572195053	-0.13126040995121002	-0.03909932076931	0.1565209925174713
Conduct_Disorder	0.04511717086037	-0.21120132009188333	0.0025644275204589006	0.20643307268619537	-0.06711950525641441	0.06757379105935495	0.1538955569267273	0.0356136771539847	-0.08479292939106624	-0.20208811263243356	0.23400595287481943	-0.16986374060312906	0.1633137067159017	-0.14896338681379953	-0.09745021909475327	0.015398589195683599	0.13823128988345465	-0.008631703133384386	0.20459087689717612	0.07165696347753207	0.17239757378896078	-0.07577644226451714	0.1641281172633171	0.15891064206759134	-0.22637687623500824	0.05411829302708308	0.007059874168286725	0.04520056520899137	0.1859851578871409	0.12258511781692505	-0.19528259336948395	0.18188507854938507	-0.2274025430281957	0.025832523591816425	0.16931322713692984	0.01257896019766728	0.07544345905383427	0.17005923887093863	-0.04543701830940942	-0.16480635106563568	0.23636660476525626	0.2564585357904434	0.09080466876427333	0.14506266017754874	-0.009566411375999452	-0.005288840484960626	0.12221296628316243	0.06164132058620453	0.048377311478058495	-0.08189872403939565
Pure_Hypercholesterolemia	-0.0813073143362999	0.056326817721128464	-0.06049257144331933	-0.04762006923556328	0.026401054114103317	0.18947383761405945	-0.1029871255159378	0.026423124596476555	0.009453641250729559	0.04339925944805145	0.1998262107372284	0.02409256435930729	-0.22009539604187006	0.14674322307109833	0.1546146720647812	-0.11193571239709854	-0.05718991905450821	-0.1603490561246872	-0.14253413677215576	-0.1442287117242813	-0.15559284389019012	0.21105775237083435	0.045296844094991684	-0.13117152452468872	0.19547656178474426	0.32555317878723145	0.09418220818042757	-0.13912053406238556	0.1410961151123047	-0.28676971793174744	-0.10378684848546982	-0.20428317785263064	-0.13255664706230166	0.047556422650814056	0.02697623148560524	0.016748912632465363	0.01956852525472641	-0.029921824112534526	0.13677050173282626	0.06157734990119934	-0.03504006937146187	0.015775905922055244	-0.2433464676141739	-0.2798701226711273	-0.03655635565519333	0.040237613022327416	-0.2316562533378601	0.20138742029666898	-0.0357835553586483	-0.14217883348464966
Larynx_Vocal_Chord_Disorders	-0.1304183260848125	-0.11545419609562184	0.04325117946912845	-0.21018186584115028	-0.07654816408952077	-0.04619944871713718	-0.21960300331314406	0.0818294957280159	0.04054940755789479	0.0005394648760557175	0.04742431640625	-0.031720065201322235	0.026828493302067127	-0.09245540454867296	0.1520682374636332	-0.2116691619157791	0.06505970858658354	-0.11210960770646732	-0.25497694313526154	0.05193716116870443	-0.06804755888879299	0.041554485927917995	0.1244124248623848	0.10687494433174531	-0.0696453358978033	0.22803420076767603	-0.005553941087176402	-0.030203374878813822	-0.030531782812128466	0.10849225707352161	-0.08381783279279868	-0.10185229297106464	-0.1591215661416451	0.04955058948447307	-0.09339455825587113	-0.24266686042149863	-0.07603353246425588	-0.03579942354311546	0.15328160549203554	-0.14556199312210083	0.177636514728268	0.05422675237059593	-0.1002669654165705	-0.17063547112047672	0.20363405905663967	0.16328533738851547	0.07275798233846824	-0.25702089816331863	-0.11392321127156417	0.12312756230433781
Pubertal_Dysfunction	-0.07272686809301376	-0.0902986377477646	0.12914927303791046	0.22049763798713684	0.1033063530921936	0.16541136801242828	0.029696783050894737	0.023473385721445084	0.0901004523038864	-0.20503759384155276	0.07178755849599837	-0.12208884209394455	0.13236074149608612	-0.3003183901309967	0.10530657321214676	-0.2329327464103699	0.2885417342185974	0.07793206721544266	0.1463407576084137	-0.0335872620344162	0.07779353111982346	-0.07373583316802979	0.21888798475265506	0.1888215094804764	-0.1234264001250267	0.07950661331415176	-0.20430558919906616	0.1405174732208252	0.08292992413043976	0.11031845957040788	-0.16685406863689425	0.11000499129295348	-0.15955081582069394	0.19172516465187076	-0.0729987695813179	-0.12638197839260099	0.12919142842292786	0.12432112544775008	0.09995926171541214	-0.11200659722089767	0.10428023338317872	0.20439834892749786	-0.05929115787148476	-0.054693158715963364	0.20118790864944455	0.05097580701112747	0.05666417255997658	-0.0985332727432251	0.09816741198301317	0.1629965901374817
Epidermolysis_Bullosa	0.031998585909605026	-0.07065434008836746	0.04627343639731407	0.1501716673374176	-0.07918118685483932	0.0023929753806442022	0.1861059069633484	0.1131780669093132	0.12474638968706132	-0.12616629898548126	-0.09149875491857527	0.02404738776385784	-0.02532898262143135	-0.182191401720047	0.08262383937835692	-0.27948787808418274	0.19207678735256195	0.12743845582008362	0.1009901911020279	-0.03529806435108185	0.09565579891204834	0.04337053373456001	0.2819904088973999	-0.03073188289999962	-0.10769541561603546	0.033887676894664764	-0.18739524483680725	0.16267715394496918	0.12622129917144775	0.053084153681993484	-0.1927732527256012	-0.16504310071468353	-0.21887901425361636	0.12185706198215485	-0.10247339308261873	0.017352554947137833	-0.028619062155485157	0.06895945221185684	-0.024365514516830444	-0.06946220248937607	0.15454846620559692	0.19028973579406736	-0.226294219493866	-0.21848317980766296	0.21064342558383944	0.19024349749088287	-0.10062438994646072	0.06674589216709137	0.09512048959732056	0.3082724213600159
Optic_Neuritis_Neuropathy	-0.07930045202374458	-0.09429480461403728	0.12957552960142493	-0.12607489340007305	0.03308377787470817	-0.07218857426778413	0.07375123631209135	-0.038550425320863724	-0.04047682322561741	0.06883856351487339	0.09464766830205917	0.10929696261882782	-0.1578026837669313	-0.007284109946340326	0.15772818122059107	-0.11448330711573362	-0.07421264005824924	-0.2653760723769665	-0.18806888908147812	-0.14431145600974563	-0.11776008643209934	0.17596282437443733	0.16096922382712364	-0.06105302646756172	0.026178312487900257	0.10785484082225594	-0.023834453895688057	-0.10337620996870099	-0.07856932654976845	-0.08639127388596535	0.037828825414180756	-0.1742915129289031	-0.017650932582910173	-0.08182243071496487	-0.09540122654289007	-0.060474421828985214	-0.14127243123948574	-0.16607040911912918	-0.04747186740860343	-0.15325634367763996	0.03619160782545804	-0.04248708160594106	-0.1659014020115137	-0.10477957595139742	-0.055169254541397095	0.15602798294276	-0.18883072957396507	-0.16240768879652023	-0.019044842483708635	0.11856656428426504
Secondary_Malignant_Neoplasm	0.05664950353093445	0.11564237251877785	-0.18237035473187765	-0.13467948573331037	0.14853273207942644	-0.17026852443814278	-0.03668828735438486	-0.2132136064271132	0.0840497026219964	0.0776390212898453	-0.2343019669254621	-0.06218192423693836	0.15536204849680266	-0.008948129989827672	-0.2053683176636696	0.07638663938269019	-0.008499341007942954	0.1243309136480093	0.053349358534129955	0.22684481864174208	-0.05769733339548111	-0.1267735481572648	-0.16000093892216682	-0.040149692562408745	0.14701804891228676	-0.13807284024854502	0.043142501109590135	0.09697314910590649	-0.2516648458937804	0.1656045118967692	0.18581677849094072	0.17909427732229233	0.2032432792087396	-0.060379517439287156	-0.13206914563973746	-0.034508880033778645	-0.014217839770329496	-0.08161456913997729	-0.06655458826571703	0.20373200997710228	-0.15565474331378937	-0.16878972699244818	0.18488209197918573	0.15607238871355852	-0.05564991834883889	-0.08390107269709308	0.2006573552886645	-0.17946586633721986	0.0091173896798864	-0.11593008499282102
Acquired_Coagulation_Defect	-0.257881797850132	0.10592362657189369	-0.03213099204003811	-0.16854042932391167	0.15467268228530884	-0.0883113294839859	0.07569780200719833	-0.14697634056210518	0.008209332823753357	0.06126851681619881	-0.06142735294997692	0.055172419175505645	-0.2351430356502533	0.07653677277266979	0.018171770498156548	0.08466743677854538	-0.0918649174273014	-0.19927513599395752	-0.15702074021100998	-0.020880565512925386	-0.2322431430220604	-0.0038087815046310425	-0.09327042102813721	-0.12247809395194054	0.11338063701987267	0.06348146963864565	0.032380180433392525	-0.0800226517021656	-0.2586080878973007	-0.1210865005850792	0.13914622366428375	-0.1838308498263359	0.11132390424609186	-0.1026340052485466	-0.1515003889799118	-0.22549128532409668	-0.025793226435780532	-0.30650827288627625	-0.02515485044568777	-0.08501443639397621	-0.16145243495702744	-0.12317054718732834	0.038723560981452465	0.08286033943295479	-0.11360621079802513	0.14835172519087791	-0.024038306437432766	-0.14301559329032898	-0.2602279782295227	-0.03237018245272339
Non_Specified_Cardiac_Ischemia	-0.2887158521584102	0.1353920762028013	-0.01702098881027528	-0.1071357796234744	0.10235535087330001	0.12372521470699992	0.023639642533713152	-0.08373847390924181	-0.05925275358770575	0.12669426522084645	0.1506732776761055	0.048842539744717736	-0.2399029497589384	0.1722284598009927	0.04047650005668402	0.10454985605818885	-0.14066998767001287	-0.24282874379839217	-0.2146201048578535	-0.0940854512155056	-0.14105029084852763	0.022640367038547993	-0.09781997491206441	-0.17050610269818986	0.15996313733713968	0.22932484958853042	0.11520722934177943	-0.09504791189517293	-0.028291876826967512	-0.23853756487369537	0.05446293471114976	-0.22858105599880219	0.019780830114281604	-0.06561320195240634	-0.09384715663535255	-0.21122750427041734	0.04291788595063346	-0.12286327566419329	0.0340705577816282	-0.11845471071345466	-0.10088511662823814	-0.13165114181382315	-0.03841375133820942	0.03195720724761486	-0.10015564837626048	0.1647382846900395	-0.03926657313214881	0.03864342426615102	-0.2733336389064789	-0.1470650498356138
Hemangioma_Lymphangioma	0.02820141625124961	-0.1173133859410882	-0.02378724655136466	-0.20842847600579262	-0.12745633535087109	-0.1336387344636023	-0.12371254898607731	0.11033270880579948	0.1113211065530777	-0.08832105528563261	0.012968797236680988	0.07707352796569467	-0.01939536281861365	-0.11174112185835838	0.11023170314729214	-0.2483910396695137	0.09996267780661583	-0.015062015503644943	-0.14142919145524502	-0.07375377090647817	-0.1289389692246914	0.21217836067080498	0.17233826033771038	0.08387300185859203	-0.08990994049236178	0.13872409984469414	-0.08526103850454092	-0.08009536494500935	-0.05452557560056448	-0.0005180072039365786	-0.07997134700417519	-0.10433071292936802	-0.20360954105854034	0.041826916858553886	-0.014076587976887822	-0.09395203087478876	-0.16337395086884499	-0.14600213058292866	0.07771407160907984	-0.08501215395517647	0.12292125169187784	0.0708046667277813	-0.24961884878575802	-0.2674076370894909	0.12188110128045082	0.030527676921337843	-0.14037301111966372	-0.1399890324100852	-0.009948275750502944	0.1863026265054941
Thyroid_Cancer	0.14213865995407104	-0.09589583426713943	-0.1627088189125061	-0.2848559021949768	0.1336389183998108	-0.04571774229407311	0.012058619409799576	0.2028934508562088	-0.11020082235336304	-0.053215768188238144	0.03325929120182991	0.05228226259350777	-0.02937895059585572	-0.09943009912967682	0.19807085394859314	-0.2083082348108292	0.07768798619508742	0.03152445703744888	-0.009783376939594746	-0.042256727814674384	-0.3074101805686951	0.3193230628967285	-0.05194753035902977	0.06942389160394669	-0.012022442184388638	-0.01851467788219452	0.060236692428588874	-0.24792034924030304	0.1390274614095688	0.0756087526679039	-0.15986256301403046	-0.04532328620553017	0.05777103453874587	0.09439686685800552	-0.031038211658596992	0.11474311351776124	-0.19741122424602509	-0.02511021122336388	0.10142295062541963	-0.0019585208501666784	-0.09446971863508223	0.07328863441944122	0.1025364100933075	-0.35082951188087463	0.02025971934199333	0.12336534261703493	-0.3017677068710327	0.009344357997179031	0.15681546926498413	0.053555771708488464
Speech_Language_Disorder	-0.12839030474424362	-0.05758491779367129	0.15584440529346466	0.23138086001078287	0.16248362759749094	0.18549984196821848	0.02041033407052358	-0.03699443116784096	0.04938324292500814	-0.2033146470785141	0.1532245030005773	-0.17087411880493164	0.14652320245901743	-0.2684410810470581	0.11311961213747661	-0.17012402911980948	0.2405822972456614	0.056002307683229446	0.13807765394449234	-0.05260357757409414	0.09631888071695964	-0.10465161005655925	0.2154497653245926	0.18413062890370688	-0.10820356508096059	0.12672174721956253	-0.1638999879360199	0.12120692680279414	0.07210686306158702	0.09422951440016429	-0.11299260705709457	0.15995144347349802	-0.17747102677822113	0.12647073964277902	-0.051248994966348015	-0.1850477159023285	0.1693009485801061	0.10388417541980743	0.14762990921735764	-0.1672652711470922	0.09649907052516937	0.21595333516597748	-0.04853536312778791	0.014181114733219147	0.11336975047985713	0.02321770725150903	0.09873731185992558	-0.15813269217809042	0.08223392317692439	0.09295890976985295
Acute_Upper_Respiratory_Infection	-0.08642119790116946	-0.09839309674377243	0.10785801149904728	0.09741500206291676	-0.01131687235708038	0.16896037260691324	-0.16860106959939003	0.1503511518239975	0.21655327826738358	-0.03264765286197265	0.09643477201461792	-0.06774271508523573	0.08082258825500806	-0.16776867707570395	0.10556668695062399	-0.18409399191538492	0.20323447386423746	0.08083837044735749	-0.01957583528322478	-0.08207701022426288	0.1462300643324852	-0.05397432732085387	0.17671948671340942	0.24416565398375192	-0.1891437272230784	0.15303083012501398	-0.1488633801539739	0.11693531398971875	0.07522934985657533	-0.026665285578928888	-0.22048596541086832	0.11837223296364148	-0.12341028079390526	0.21884956707557043	0.0009024026803672336	-0.10419497887293498	0.10260047639409701	0.14242965976397196	0.12082448229193687	-0.08686893355722229	0.20150403926769891	0.12150273099541664	-0.14277097210288048	-0.13081607843438783	0.24250111977259317	0.007688431564019993	0.1309200512866179	-0.10094747692346573	0.04816032201051712	0.1834028127292792
E Codes: Place of occurrence	-0.06429223895871213	-0.16433594056538173	0.0672770060066666	0.03363708060766969	-0.10881898179650307	0.0024341401045343694	-0.12792171750749862	0.17555553146771022	0.2342944656099592	-0.1308210657111236	0.1272184939256736	-0.016195674892514944	-0.0630896370857954	-0.17101808530943735	0.019078042624252185	-0.1433270520397595	0.20108104390757425	-0.07149120289250277	-0.002535269329590455	-0.10512171472821917	0.08214024554139801	0.06885084459957268	0.18856449318783625	0.21670131598200118	-0.23742766678333282	0.09027452327843223	-0.1785175289426531	0.055000483989715576	-0.001154925607677017	-0.07200367682214294	-0.2093333431652614	-0.03866128357393401	-0.19127834056104934	0.2384345190865653	0.12188135087490082	-0.06929974487450506	-0.09777117440743106	-0.017373290677954043	0.10554560007793563	-0.09489393766437258	0.19543628820351192	0.21369580498763494	-0.15937231481075287	-0.061413001003009934	0.20552687985556467	-0.05743136468559636	0.04481138049491814	-0.08217293077281543	-0.12669291985886438	0.18295543960162572
Benign_Male_Genital_Neoplasm	-0.2607901692390442	0.10683535039424896	0.016091188415884968	-0.08848446607589723	-0.0906011164188385	-0.010565607808530329	0.026336153969168663	-0.1179966852068901	0.0017599033890292046	0.040184404700994485	-0.029969021677970886	0.22418731451034546	-0.20742572844028476	0.08538249880075455	0.14479178190231326	-0.12988795340061188	-0.024355031549930573	-0.15865494310855865	-0.2327437102794647	-0.19529132544994354	0.02069085463881493	0.10555914044380188	0.12817871570587158	-0.1167830377817154	0.04519641771912575	0.2518250644207001	0.0070223468355834475	0.0173180028796196	-0.21752555668354034	-0.3011310696601868	0.12391914427280425	-0.2274761646986008	-0.08684208989143373	-0.14067991077899933	-0.02693045139312744	-0.24822859466075894	-0.01842070370912552	-0.2457604855298996	-0.059492986649274826	-0.057876016944646835	-0.07929589599370956	-0.03439747542142868	-0.25164246559143066	-0.015195944346487522	-0.0962589904665947	0.06886895000934601	-0.0735178142786026	0.07661829888820648	-0.23749494552612305	-0.08937909454107285
General_Paralysis	-0.18897726635138193	-0.08461815615495046	0.02586383993426959	-0.06497753690928221	0.1087438811858495	-0.19259820878505707	0.15138773620128632	-0.1958225096265475	0.12027689442038536	0.04742145041624705	0.013362271090348562	-0.07096921652555466	0.046974328036109604	0.002985276902715365	-0.13617014388243356	0.17570005853970846	-0.04485629312694072	-0.10509781260043383	-0.003877661501367887	0.11871449897686641	-0.14968970169623694	-0.04265898217757543	-0.06049950048327446	-0.06809502591689427	-0.030381761491298676	-0.03775023731092612	0.0748852826654911	-0.21167161564032236	-0.3418506185213725	0.03128143151601156	0.0897534688313802	0.16629922886689505	0.036192843380073704	-0.14770902693271637	-0.17760489135980606	-0.16313877205053964	-0.02728336739043395	-0.20360691597064337	-0.21481623748938242	-0.060666521390279136	0.0780635525782903	-0.1664765477180481	-0.005667552972833317	0.14158705125252405	-0.17591464767853418	-0.04375595529563725	0.10320918262004852	-0.23799824714660645	-0.11751147607962291	-0.0763561762869358
Secondary_Arthropathy	0.13651804625988007	-0.16851884126663208	-0.06953946501016617	-0.20638808608055115	-0.1159418374300003	-0.1866321861743927	-0.1693432331085205	0.1125415712594986	0.17050692439079285	0.04280511662364006	0.16986297070980072	-0.1297481507062912	-0.018565542995929718	0.02147246710956097	-0.05176205933094025	0.02442453615367413	-0.04764850065112114	-0.2616004049777985	-0.14053936302661896	0.0071609471924602985	-0.10762020945549013	0.1817803680896759	0.02035759761929512	0.06364613771438599	-0.11138436198234558	-0.07358083873987198	0.06128610670566559	-0.21711939573287964	-0.26447927951812744	0.07814843952655792	0.009095233865082264	-0.0017829058924689891	-0.17782633006572726	0.09339357167482376	0.11268941313028336	0.13640183210372925	-0.22763633728027344	-0.2063741683959961	-0.10014476627111436	-0.08271652460098268	0.2727774083614349	-0.017421282827854156	-0.2526953220367432	-0.0763772502541542	0.007282697595655919	-0.12207268923521042	-0.0011757275788113475	-0.2756636738777161	-0.17365430295467374	0.04849579930305481
Osteoarthritis	-0.0415345440308253	-0.022370477641622224	-0.09016871446122726	-0.18916906664768854	-0.01541855630154411	-0.15213309675455094	-0.07951278535959622	0.0027676680527899114	0.10779312575856845	0.04595160316675902	0.06870619075683256	-0.005448241935422023	-0.23237690875927608	0.06850473772113522	0.06094552146193261	-0.03182066446946313	-0.05992577361563842	-0.28471616456906	-0.22750312102337678	-0.10354009668032328	-0.16025037206709386	0.1578633854786555	0.09566963662703833	-0.039519941162628434	0.01759169002374013	0.01731233859900385	0.0012195510013649862	-0.1311242760779957	-0.24737720042467118	-0.08788479439293345	0.1003419711953029	-0.23256055215994517	-0.09238581874718269	0.002947174400712053	0.07144266200872759	-0.021450201468542218	-0.19858038673798242	-0.3554210970799128	0.00927243246890915	-0.07301996389481549	0.038319676282117146	0.02284647508834799	-0.20550434912244478	-0.053442029003053906	-0.03600792880946149	-0.04442236753335844	-0.06208891889158016	-0.22007432356476783	-0.274567678074042	0.09019491012829045
Localized_Adiposity	-0.0340580977499485	-0.20885515213012693	-0.038172867149114616	-0.1642722338438034	-0.18808285892009732	-0.1966703236103058	-0.2121085375547409	0.16529546678066254	0.2567707002162933	-0.1144336834549904	-0.026705866679549217	0.09088118374347688	-0.12889143824577332	-0.17074553668498993	-0.05862393230199814	-0.06859873235225677	0.17937958240509033	-0.0834369957447052	-0.03950875997543335	-0.03202768415212631	-0.20590287446975708	0.19598180055618286	0.029138479381799694	0.2675548791885376	-0.2330290675163269	-0.07874047011137009	-0.09998884052038193	-0.16879449784755707	-0.21309401094913485	-0.09949394315481186	-0.17094777524471286	-0.06208486109972	-0.03540686145424843	0.1775171011686325	0.10990174859762193	0.006821196991950274	-0.20286284387111664	-0.2174508422613144	0.003133394755423069	0.08649446815252304	0.12152046710252762	0.07977297157049179	-0.0399790108203888	-0.11163738369941713	0.16096103191375732	-0.1480734795331955	-0.08997830003499985	-0.029904374852776524	-0.06670808047056198	0.13737556338310242
Male_Genital_Cancer	-0.15450663305819035	0.0713823875412345	-0.04905011405935511	-0.06074649654328823	-0.114706851541996	0.009735135827213526	-0.11295398976653816	-0.043160175904631615	0.026362497359514236	-0.03503383509814739	0.033355483785271645	0.09398198686540127	-0.11686749942600726	-0.006492078304290778	0.14769992232322693	-0.22686799615621564	0.09471632726490498	-0.19197574257850647	-0.15677323192358017	-0.20677885413169858	0.04584232717752456	0.15972983464598656	0.1282428577542305	0.028985898941755295	-0.016053402796387672	0.2394497320055961	0.008981995284557343	0.04338198248296976	-0.20946458727121353	-0.22375722974538803	0.02865726500749587	-0.19753041118383408	-0.1867678537964821	-0.02709456533193589	0.058745876885950565	-0.16759292408823967	-0.028423440526239574	-0.2358703389763832	-0.03227274212986231	-0.03277947474271059	-0.047565969987772405	0.09868301614187659	-0.24441053718328476	-0.09047959186136723	0.009967375546693802	0.015115891583263876	-0.05484899692237377	0.05966174928471446	-0.2453830391168594	-0.08028915524482727
Epilepsy_Related_Disorders	0.01154324784874916	-0.24057333016147217	-0.007561187764319281	0.1262185126543045	0.0026746622364347146	-0.08524058712646365	0.10559531860053539	-0.026004162015548598	-0.009731020235146088	-0.1923774890601635	0.28800734753410023	-0.19264096642533937	0.17338925475875536	-0.1462673433125019	-0.09272378652046125	0.0651612258516252	0.07034010248025879	-0.03522957192035392	0.2124335157374541	0.09627082571387291	0.1522502526640892	-0.02200381545117125	0.06775874077963333	0.11437280972798665	-0.20506935007870197	-0.032230183482170105	0.03520823743504783	-0.09690464055165648	0.08594735028843085	0.18070559141536555	-0.12380983183781306	0.24349824339151382	-0.23738258704543114	0.04436360540178915	0.13034124486148357	0.006963575569291911	-0.046484794933348894	0.15275013570984206	-0.07638568431138992	-0.18477725610136986	0.24374081939458847	0.12201763627429803	0.020895800339834143	0.12207996804499999	-0.055838339865052454	0.007957712785961727	0.15830530412495136	-0.11899883920947711	0.017518395790830255	-0.08399622421711683
E Codes: Other specified and classifiable	-0.10654393335183461	-0.10008767247200012	0.13716884702444077	0.07815334511299928	-0.008401714265346527	0.11549848318099976	-0.08980858077605565	0.1286046157280604	0.1605464518070221	-0.1343571866552035	0.13446151713530222	-0.041068822145462036	0.007229036961992581	-0.21511830389499664	0.10931116094191869	-0.2321168432633082	0.21722795565923056	-0.04394901047150294	0.0161034179230531	-0.15521431962649027	0.043421728536486626	0.06070237327367067	0.2081619699796041	0.24268139898777008	-0.2046891748905182	0.1451028436422348	-0.1943021019299825	0.07799409081538518	0.019622521164516606	-0.036737863595287	-0.1784818967183431	-0.015667765711744625	-0.1967704345782598	0.17962700128555298	0.009291491781671843	-0.14389722794294357	0.027721927501261234	-0.010456740002458295	0.12247270594040553	-0.1527019590139389	0.1632690727710724	0.21120993793010712	-0.16567864765723547	-0.11643994599580765	0.21426395078500113	-0.014244751383860907	0.008394673466682436	-0.12270105878512065	-0.038230204954743385	0.20612436532974243
Impulse_Control_Disorder	0.0831158235669136	-0.23527251929044724	-0.0348655292764306	0.17333701252937317	-0.12991543859243393	-0.002948361448943615	0.13836748898029327	0.06668752804398537	-0.07858259230852127	-0.19194459170103073	0.2505083531141281	-0.15679210424423218	0.15011021494865417	-0.1262238770723343	-0.10959041863679886	0.02547442074865103	0.11616271734237671	-0.04968557693064213	0.19064395874738693	0.08097529038786888	0.18737763166427612	-0.013893133960664272	0.13606973364949226	0.1452871784567833	-0.261045441031456	0.040057780221104615	0.03196987137198448	-0.015585607150569558	0.1781676635146141	0.1155770532786846	-0.21413279324769974	0.14690759032964706	-0.2555491626262665	0.019580012187361717	0.210891455411911	0.06697423383593559	0.003354370594024658	0.1687796264886856	-0.07173607125878334	-0.16787657141685486	0.2688538730144501	0.26597096025943756	0.06420070677995682	0.11904879286885263	-0.011452228063717484	0.0035775275900959964	0.09612983837723732	0.08991401642560959	0.04315907508134842	-0.08140545710921288
Diverticulosis_Diverticulitis	-0.20996888354420662	0.05919426168176756	-0.00945621030405164	-0.2693329192698002	-0.08204850368201733	-0.15057446621358395	-0.13517485791817307	-0.09675805270671844	-0.002957390737719834	0.029074815101921555	-0.002422270365059375	0.2111450545489788	-0.09137075860053301	0.07963607925921679	0.06950851436704397	-0.09884646814316511	-0.06327130680438131	-0.08046902902424335	-0.28695690259337425	-0.031164114363491535	-0.24344222992658615	0.11725344136357307	-0.0001093945465981995	-0.10382931586354971	0.14554652199149132	0.26710666716098785	0.05874516465701163	-0.1527367066591978	-0.11933254636824131	-0.1113376694265753	0.08664794638752937	-0.1611264031380415	-0.05545508861541748	-0.12970424070954323	-0.06360110710375011	-0.2774832434952259	-0.11778000183403492	-0.1485581286251545	0.09258706029504538	-0.0197838032618165	-0.006517600617371498	-0.16437113843858242	-0.13925968948751688	-0.11513192718848586	-0.025182506942655888	0.056984408758580685	-0.07843968831002712	-0.09469005651772022	-0.0691271098330617	-0.045436467946274206
Non_Specific_Digestive_Congenital_Anomaly	-0.1541421338915825	-0.09365234710276127	0.020017597824335105	-0.29966942965984344	-0.09813634306192398	-0.16243192553520203	-0.16149314865469933	0.014089394360780723	0.030697457026690245	-0.015362124890089039	0.05668795481324196	0.11161475256085396	-0.06627443060278893	-0.012082368135452267	0.11621098592877388	-0.1863248571753502	-0.019075227901339527	-0.104441836476326	-0.282454714179039	-0.009709451347589493	-0.26152850687503815	0.12575143203139305	0.07825247943401337	0.004088152199983597	0.0294644795358181	0.24447955936193466	0.037478327751159675	-0.16968988627195358	-0.06221716827712953	0.018974955193698403	-0.031692611053586006	-0.129775982350111	-0.15017565339803696	-0.02944004163146019	-0.07304064370691776	-0.22848407924175262	-0.176070436835289	-0.11011009663343428	0.07761510275304317	-0.11882083863019943	0.1409616954624653	-0.07110293617006391	-0.1606755629181862	-0.21728777140378952	0.08963343873620033	0.09941423870623112	-0.09971796441823244	-0.21225184947252274	-0.06329204700887203	0.09288301691412926
Homocystinuria	-0.05342957749962807	-0.0964123234152794	-0.011340143159031868	-0.19822877645492554	-0.011641100980341434	-0.07576218247413635	-0.050690751522779465	0.058862399309873574	-0.04108516871929169	-0.035380393266677856	0.08623341470956802	0.07166709005832672	-0.2263312488794327	0.02562875114381313	0.21515293419361115	-0.14261367917060852	-0.014692077413201332	-0.2338629812002182	-0.1833345890045166	-0.1142314001917839	-0.3246903121471405	0.23189693689346316	-0.01743156835436821	-0.05127095803618431	0.08931801468133926	0.12469150871038436	0.06069223582744599	-0.2829475998878479	-0.08081462234258653	-0.14587727189064026	-0.07820164412260057	-0.2590149939060211	-0.06722252815961838	-0.0035918625071644783	-0.11065938323736192	0.03679605945944786	-0.15480415523052216	-0.2076029479503632	-0.007650461513549089	-0.07488628476858139	-0.04170280694961548	-0.019391587004065517	-0.08493965119123459	-0.2441505640745163	0.019972339272499084	0.2001070082187653	-0.33994534611701965	0.07120281457901001	-0.098072849214077	0.003871941473335028
